%YAML:1.0
---
opencv_ml_svm:
   format: 3
   svmType: C_SVC
   kernel:
      type: LINEAR
   C: 1.
   term_criteria: { epsilon:1.1920928955078125e-07, iterations:1000 }
   var_count: 64
   class_count: 10
   class_labels: !!opencv-matrix
      rows: 10
      cols: 1
      dt: i
      data: [ 0, 1, 2, 3, 4, 5, 6, 7, 8, 9 ]
   sv_total: 45
   support_vectors:
      - [ -4.83173681e-05, 1.15916300e-04, 1.35853343e-05,
          3.71229689e-05, 1.12184416e-05, 4.57349688e-06, 5.17620009e-08,
          1.12313444e-06, 5.76983766e-05, 1.09463661e-04,
          -9.40247483e-05, -5.99191253e-06, -1.39153017e-05,
          -2.66924690e-05, -8.97806603e-06, -6.58509525e-05,
          -5.35776599e-05, -1.43768984e-05, -9.86768136e-05,
          2.15022055e-06, 2.75657549e-05, 3.11540716e-05, 5.85240341e-05,
          6.80841986e-05, 4.43354038e-05, 2.71305089e-06, 5.26816111e-05,
          4.42914024e-05, -5.67114193e-06, 3.88256085e-05,
          -3.56122456e-07, 1.76563281e-05, -9.15853252e-06,
          -6.47091729e-05, 5.17292074e-06, 7.87851095e-05,
          1.14450368e-05, 4.29122956e-05, 2.25387139e-05, 3.83781444e-05,
          -1.24268525e-04, -7.73207503e-05, 6.01810425e-05,
          5.50118602e-05, 5.52090751e-05, 5.72451754e-05, 7.16490977e-05,
          5.97110238e-06, 1.00659570e-04, 1.67443446e-04, 1.12015980e-04,
          3.97957701e-05, 9.69334269e-06, -1.38913874e-05,
          -6.33926320e-05, -4.05357750e-05, -8.43573434e-06,
          7.90374324e-05, 9.59494791e-05, -2.38299417e-05,
          9.07964204e-06, -1.43336483e-05, 1.16873653e-05,
          -1.26164250e-05 ]
      - [ 1.11132576e-04, 1.45455197e-04, 9.91038396e-05,
          -7.90103368e-05, 4.03920640e-05, -1.75417317e-05,
          -2.15133014e-06, 4.08722917e-05, 7.82362986e-05,
          1.54409776e-04, 6.78619035e-05, -4.89942649e-05,
          -1.61058095e-04, -6.88974906e-05, -6.48999048e-05,
          6.46271837e-06, -1.73973385e-05, 2.01996518e-05,
          -1.65860649e-04, -4.03635859e-05, -8.64576759e-06,
          -5.97424923e-06, 1.14687165e-04, 9.88777247e-05,
          6.89699009e-05, 5.01246577e-05, 1.92723310e-05, 5.67798052e-05,
          4.61370764e-05, -8.63853420e-05, 2.30877067e-05,
          2.05322631e-05, -1.30585177e-04, -2.52829195e-05,
          2.00952272e-05, 9.27829606e-05, -9.87217572e-06,
          1.30645876e-05, 6.07353172e-07, -3.01335549e-05,
          -1.04168139e-04, -8.45995673e-05, 1.80307525e-05,
          1.87494006e-05, 1.27233579e-04, 8.82813474e-05, 3.90507630e-05,
          1.06690150e-05, 8.89752555e-05, 1.94758570e-04, 1.38439267e-04,
          -6.77937933e-05, -9.62892300e-05, -1.12257141e-04,
          -1.25620470e-04, -4.42733108e-05, 8.51907316e-05,
          2.32084622e-05, -5.31948126e-06, -7.57259331e-05,
          -1.30637141e-04, -7.43618730e-05, 3.55280486e-06,
          4.47854763e-05 ]
      - [ 1.18585420e-04, 1.28083208e-04, -1.24127992e-05,
          -1.82575968e-05, 8.09775229e-05, 5.42840598e-06,
          -6.72421265e-06, 1.25409069e-05, 1.08232809e-04,
          -3.45834596e-05, 7.53059139e-05, -1.28980493e-04,
          -5.23684903e-05, -5.01713184e-05, -1.14879185e-04,
          -4.14153910e-05, 1.81803494e-04, -6.05736568e-05,
          -1.81001713e-04, -8.24108647e-05, -3.91033536e-05,
          9.72574526e-06, -1.15701982e-06, 1.87414524e-04,
          1.45851111e-04, 2.84539274e-04, 9.63001366e-06,
          -3.70456582e-05, -1.11825866e-04, -3.48227622e-05,
          7.51997650e-05, 8.19326815e-05, 1.64194771e-05,
          -1.10943101e-05, -1.33211788e-05, 1.32787600e-05,
          -1.05576059e-04, 1.43666593e-05, -4.81314164e-05,
          5.47613854e-05, -3.90507885e-05, 1.02441314e-04,
          7.89675687e-05, 4.48418250e-05, 1.83224649e-04, 2.68062868e-05,
          8.63520472e-05, 4.79375994e-05, 5.23334311e-05, 7.36777147e-05,
          1.69501523e-04, 9.36267752e-05, 5.74793885e-05,
          -1.08611530e-05, -1.61283271e-04, -1.31622583e-04,
          -1.83053082e-04, -9.71238933e-07, -1.46319808e-05,
          5.65551418e-05, -5.52052807e-05, -1.14036695e-04,
          -1.27432941e-04, 3.38498430e-05 ]
      - [ -4.11241053e-05, -4.54290675e-05, 2.57672491e-05,
          -1.51816550e-06, -2.00671457e-05, -2.16822173e-05,
          -7.90569975e-05, -8.05152813e-05, -2.16358349e-05,
          -1.09993753e-05, -6.46759217e-05, 2.58104387e-06,
          1.57395443e-05, 9.93717094e-06, 2.14020638e-05, 6.76849322e-06,
          3.45703447e-05, 4.04851526e-05, -9.75786315e-06,
          1.50045535e-05, 9.48958259e-05, 6.46515982e-05, 1.42838326e-04,
          1.70271524e-04, 2.10222410e-04, 9.21542742e-05, 1.03290382e-04,
          -6.17757041e-06, -3.02839853e-05, -1.01759040e-04,
          5.28547826e-05, 1.13077345e-04, -5.34897663e-05,
          -1.51352899e-04, -6.39686987e-05, -2.97932893e-05,
          1.08237264e-05, 5.20443391e-05, 9.68352615e-05, 1.30077926e-04,
          2.15093246e-06, 1.19536171e-05, 4.16210787e-05, 1.49074345e-04,
          1.55661648e-04, 1.37545634e-04, 1.86592719e-04,
          -2.61201621e-05, 2.18829751e-04, 2.11078746e-04,
          2.64789094e-04, 1.99135684e-05, -4.74767585e-05,
          -3.54667973e-05, -1.03887643e-04, -6.56234479e-05,
          -2.37832191e-05, -1.90192077e-06, 4.64187651e-05,
          -8.37178814e-05, -6.72105525e-05, -1.41247845e-04,
          -1.31906287e-04, -3.72269824e-05 ]
      - [ -6.55489421e-05, -2.03692871e-05, 5.92245160e-05,
          -1.91263425e-05, 7.84137155e-05, -1.34250849e-05,
          -3.96147225e-05, -3.74359006e-05, 5.43420647e-05,
          1.12337366e-04, 1.22522661e-05, -7.12911205e-05,
          5.12579754e-05, -3.16960868e-05, -4.33987134e-06,
          -1.47931991e-04, 5.30692851e-05, 4.03458507e-05,
          -4.27401465e-05, -2.24540308e-05, -2.52210612e-05,
          8.28426200e-05, 5.01617069e-05, 1.51855231e-04, 9.50049143e-05,
          9.91583001e-05, 1.08296831e-06, -4.77050999e-05,
          -6.11113210e-05, 5.74864898e-05, 4.55587287e-05,
          9.73696733e-05, 1.24286453e-04, 6.36819750e-05,
          -3.92651373e-06, -6.32056326e-05, -8.60100045e-05,
          -3.01926011e-05, 4.82986652e-05, 1.55840185e-04,
          7.27397492e-05, -1.99623355e-05, -8.25430980e-05,
          -1.08170316e-04, 5.30880898e-05, 4.34905342e-05,
          1.09525950e-04, 1.14267605e-04, -5.86093702e-05,
          1.21551035e-04, 1.15509698e-04, 8.74249381e-05,
          -4.51046571e-06, -2.33546925e-05, -1.53763060e-04,
          -1.26820552e-04, -7.38920608e-06, 4.06197978e-05,
          8.45477698e-05, 3.98345692e-05, 6.28253065e-06,
          -7.62858617e-05, -1.00136902e-04, -1.77681000e-06 ]
      - [ -1.44385616e-04, -6.08588198e-05, 1.08714230e-04,
          1.54472582e-04, 7.22631012e-05, -3.53012838e-05,
          -6.42106461e-05, -5.05533899e-05, -3.76855824e-05,
          2.06365530e-05, 4.12287554e-05, 8.56602055e-05, 1.51078766e-05,
          1.40918428e-05, 1.17918598e-05, -1.46390730e-05,
          -3.20420913e-05, -5.56790064e-06, 1.39766162e-05,
          5.37228480e-05, 1.39589116e-04, 2.08957863e-05, 3.66904787e-05,
          1.18420292e-04, 8.74444013e-05, 6.78896031e-05, 1.22222453e-04,
          8.26442265e-05, -2.87273087e-05, 3.89297384e-05,
          4.75508095e-05, 2.71082968e-06, 1.79395283e-04,
          -6.93498587e-05, -1.20600605e-04, -7.25900827e-05,
          -5.65483388e-05, 9.97125826e-05, 1.60370430e-04,
          2.67418567e-04, 3.50526134e-05, -1.77971069e-05,
          -5.70976117e-05, 3.47236637e-05, 1.37999523e-04,
          8.09220146e-05, 2.00170674e-04, 1.74548040e-04, 6.66626074e-05,
          1.23497201e-04, 1.12815898e-04, 8.43261514e-05,
          -2.00466729e-05, -6.45370674e-05, -6.54183241e-05,
          -4.87584148e-05, -1.96150086e-05, 4.23833153e-05,
          -9.54097122e-05, -2.01684466e-04, -4.15529103e-05,
          -7.00603050e-05, -3.22884262e-05, -6.73330142e-05 ]
      - [ 1.07782747e-04, 1.03169536e-04, -4.70517807e-05,
          -1.33693626e-04, -1.32737812e-04, -8.00116613e-05,
          -4.21733203e-05, -4.92474537e-05, 1.89734819e-05,
          -3.07618279e-06, 4.08501946e-05, -1.13315895e-04,
          -4.18387644e-05, -2.90966618e-05, -1.42066881e-06,
          4.59725743e-05, -1.09731656e-04, -5.51058438e-05,
          3.23685381e-05, -1.73659191e-05, 5.92032484e-05,
          1.06286039e-04, 2.16808417e-04, 2.35817410e-04, 1.60272757e-04,
          -5.88982475e-05, -1.12591501e-04, 8.34967650e-05,
          1.76360001e-04, 5.58419888e-05, 1.20692086e-04, 3.68606998e-05,
          1.13026479e-04, 3.03184406e-05, 6.81417150e-05,
          -6.26578476e-05, -1.56694936e-04, 7.40809846e-05,
          -3.45491135e-05, 7.53166751e-05, -3.39703479e-06,
          1.30993780e-04, 1.24013823e-04, 1.91640880e-04,
          -6.93660468e-06, -1.62029992e-05, -1.03216698e-05,
          -7.31213222e-05, 6.25679822e-05, 1.02875783e-04,
          2.55543215e-04, 7.71009290e-05, 1.41788014e-05,
          -3.30249750e-05, -9.33672563e-05, -1.03750957e-04,
          -3.19351457e-05, -1.25033068e-04, 1.15445408e-04,
          -1.32667165e-05, 7.71660598e-06, -3.60201630e-05,
          -5.62000714e-05, -1.03379516e-05 ]
      - [ 4.73702275e-05, 1.25378530e-04, 1.68452112e-04,
          -1.48561187e-04, 4.98205409e-05, -9.54935822e-05,
          -2.37369939e-04, -3.36128214e-05, -4.25090548e-05,
          1.26797153e-04, -1.31563313e-04, 2.25861040e-05,
          1.25828674e-05, 4.12979316e-05, -7.98718756e-05,
          -9.48189772e-05, -1.29606575e-04, -1.53738074e-05,
          -1.21074670e-04, 7.40369942e-05, 5.95766833e-05,
          1.18079239e-04, 1.40190590e-04, 1.50846739e-04, 1.32498244e-04,
          1.49902320e-04, -5.43760689e-05, 4.79435548e-05,
          3.59864243e-05, -3.46380039e-05, -6.67562999e-05,
          -8.72393866e-05, -6.05829264e-05, -1.83545475e-04,
          -6.13905067e-05, -1.33359572e-04, -1.36285453e-04,
          5.19947935e-05, 3.18604652e-05, 1.16256961e-04, 4.24738755e-05,
          -2.25695803e-05, -5.18617526e-06, -2.78264361e-05,
          1.84040720e-04, -3.25613619e-05, 1.86411809e-04,
          -3.79209064e-06, 2.52026453e-04, 2.07489953e-04,
          1.70060724e-04, -2.19027152e-06, 9.23682164e-05,
          -3.17740087e-05, -1.57972099e-04, -2.25887678e-04,
          -6.29762144e-05, 1.16018336e-05, -6.01932697e-05,
          -8.05500749e-05, -8.41110232e-05, -1.41746845e-04,
          -1.66920017e-05, 5.26403055e-05 ]
      - [ 2.03259158e-04, 9.80670156e-05, -4.14585666e-05,
          -1.57449918e-04, 4.91491628e-05, -2.46848122e-05,
          -1.97705842e-04, -1.48620209e-04, 1.89746497e-05,
          -6.98067306e-05, -1.18168020e-04, -3.42460589e-05,
          -1.10551417e-04, 3.87832151e-05, 5.07684708e-05,
          -2.10218539e-04, 1.63151362e-05, 6.83624239e-05,
          -5.47207746e-05, 1.24782455e-05, 8.67471390e-05,
          -1.03582797e-05, 5.43276437e-05, 3.26017878e-04,
          3.80751531e-04, 1.50666847e-05, -1.15694136e-04,
          2.14200612e-04, -1.80047591e-05, -1.76471603e-05,
          6.10730876e-06, 2.02307288e-04, -1.64039375e-04,
          -1.54617315e-04, 2.77949175e-06, -9.41672770e-05,
          -7.19935997e-05, 1.11521490e-06, 7.64594297e-05,
          1.15841780e-04, 1.22773135e-05, 2.22132658e-04, 6.37890043e-05,
          4.53921166e-05, 1.05362371e-04, 1.51312881e-04, 5.41568224e-05,
          1.60929121e-04, 2.03983276e-04, 2.91331002e-04, 1.60643976e-04,
          5.74747355e-05, 6.98391814e-05, 8.87779315e-05,
          -4.39999458e-05, -1.80716655e-04, -7.08280349e-05,
          -1.15690847e-04, 1.65123653e-04, 1.65113001e-04,
          1.02381746e-04, -2.42506838e-04, -1.82000062e-04,
          -8.30084682e-05 ]
      - [ 8.83861721e-05, 2.75160011e-04, 1.71895765e-04,
          -4.10583161e-05, -9.09800729e-05, 4.30862929e-05,
          8.45884424e-05, 8.90559875e-07, 4.29066586e-06,
          -1.32436733e-04, 1.30973232e-04, -9.19481172e-05,
          1.21245484e-05, 4.25509861e-05, -2.22522231e-05,
          -9.26841494e-06, 1.33988258e-04, -1.20883742e-04,
          -1.24343889e-04, -1.39511976e-04, 4.33244122e-06,
          -1.15750299e-04, -5.84559421e-05, -7.94630105e-05,
          1.04933963e-04, 4.11196117e-04, -6.31030853e-05,
          1.31676483e-04, -2.35707863e-04, -4.14094538e-04,
          -6.90263769e-05, 1.65067722e-05, -2.52179852e-05,
          5.20968351e-05, -1.11612673e-04, -6.42418963e-05,
          1.66132741e-05, -7.57908274e-05, 6.32372394e-05,
          1.60909171e-04, 7.42459015e-05, 1.12147442e-04,
          -4.81005809e-05, 4.11351948e-06, -6.48125351e-05,
          -1.26154730e-04, -9.30466849e-05, 9.32975945e-06,
          9.75133225e-05, -4.56836369e-06, 7.22678305e-05,
          -3.60597624e-04, -1.89852362e-04, -2.99049396e-04,
          8.16829852e-05, -1.57676709e-06, -1.58689943e-06,
          -3.50057089e-05, -3.17447935e-04, 2.31934027e-05,
          -2.93844438e-04, -1.69616746e-04, 3.09767915e-06,
          2.88904790e-04 ]
      - [ 3.21228581e-05, 6.69857445e-06, -4.05910432e-05,
          -1.59979812e-04, -3.17256709e-05, 3.35454897e-05,
          9.51255934e-05, 1.52374832e-05, 5.40078463e-06, 5.22775827e-06,
          2.14153071e-04, -9.36375582e-05, -8.81844899e-05,
          -9.10139788e-05, 6.49881986e-05, 5.86963688e-05,
          1.78753995e-04, 2.57799238e-05, -7.33804627e-05,
          -8.56335464e-05, -6.22458392e-05, -3.34651850e-05,
          -8.16055581e-06, 1.18884763e-07, 5.53881146e-05,
          7.77579116e-05, 1.70824514e-05, 9.09345454e-06,
          -1.29424021e-04, -1.80735704e-04, -3.53643554e-05,
          7.84288277e-05, 2.21229304e-04, 9.62987469e-05, 3.65281448e-05,
          -8.21206340e-05, -9.82815545e-05, -1.21983147e-04,
          -5.57961575e-05, 9.56569711e-05, 1.41746408e-04,
          8.68294519e-05, 1.30765739e-06, -4.54449400e-05,
          -2.03555264e-05, -4.82153882e-05, -1.66787395e-05,
          5.34132705e-05, -2.45403371e-05, -7.60134790e-05,
          -2.83390054e-05, -2.44084222e-05, 5.62160094e-05,
          4.73724613e-05, 6.48229761e-05, 1.32317864e-05,
          -3.52534371e-05, -1.34513146e-04, -9.75332950e-05,
          1.15957722e-04, 3.43819338e-05, -3.92819420e-05,
          7.64591368e-06, 1.80272818e-05 ]
      - [ -5.38631648e-05, -1.98934402e-04, -1.50434062e-04,
          -1.54326510e-04, -1.88134567e-04, -1.34746471e-04,
          -7.44106583e-05, -2.42130263e-04, -1.63708406e-04,
          -3.26896610e-04, 2.29951198e-04, 7.54807697e-05,
          9.26643770e-05, 8.96836355e-05, 8.64555768e-05, 8.87889764e-05,
          2.18574132e-04, 2.09691701e-04, 2.10273283e-04, 2.24450108e-04,
          1.63551391e-04, -1.51092216e-04, -1.13749244e-04,
          -1.01041369e-05, 1.40107310e-04, -1.01811740e-04,
          -3.36617923e-05, -1.27459251e-04, -2.66362069e-04,
          -2.44155148e-04, 7.06941428e-05, 7.79949842e-05,
          -7.79240509e-05, -7.60807816e-05, -8.14727446e-06,
          -4.74863809e-05, -5.53238569e-05, -1.86754987e-04,
          1.05711217e-04, 1.40691845e-04, 2.76752427e-04, 2.24412783e-04,
          4.67274986e-05, 2.28057297e-06, 2.44874150e-06, 1.61998269e-05,
          5.77913488e-05, 3.57619392e-05, -8.24244216e-06,
          -1.42001518e-04, -2.91364559e-04, -1.17549622e-04,
          2.35046136e-05, -7.84661897e-05, 2.54837039e-04,
          1.27391366e-04, -3.50821392e-05, -3.19289284e-05,
          -2.06975354e-04, -5.03854335e-06, -6.85703126e-05,
          -1.38077856e-04, -6.82895843e-05, 4.63277065e-05 ]
      - [ -3.14509743e-05, -6.22926564e-06, 4.23263882e-05,
          -6.79055893e-06, 2.23309089e-05, 3.00761021e-05,
          3.93864175e-05, 4.91222636e-06, -6.17426340e-05,
          -2.04143380e-05, 9.50296599e-05, 2.51424117e-05,
          1.71308584e-05, 2.67277537e-05, 2.64728737e-06,
          -1.29814362e-04, 1.15727533e-04, 2.41107373e-05,
          -1.04057719e-04, -3.95145034e-05, -1.20448394e-05,
          -1.77651418e-05, -2.01802559e-05, -1.49293774e-05,
          1.14770401e-05, 3.62768660e-05, 4.15406430e-05,
          -8.96476195e-05, -6.04268507e-07, -1.24965314e-04,
          -1.78633127e-05, 9.48903034e-05, 8.11915743e-05,
          9.62058039e-05, 5.26554250e-05, -1.13550333e-04,
          -8.67953713e-05, -5.02574512e-05, -3.03812722e-05,
          8.82150271e-05, 6.29562273e-05, 1.82485055e-05,
          -9.79861361e-05, -1.18460281e-04, -1.40788316e-05,
          -1.93031156e-05, -2.05948090e-05, 4.00481804e-05,
          -7.59941613e-05, -9.61380356e-05, -9.88559259e-06,
          -3.47483656e-05, -1.84324235e-05, -5.19515088e-05,
          3.78239638e-05, 8.40932335e-05, 9.03106138e-06,
          -5.08791818e-05, -6.07259099e-05, 6.30194563e-06,
          4.32097841e-06, 2.43401956e-07, 2.28240297e-05, 6.03518820e-05 ]
      - [ -1.35004710e-04, -2.60538713e-04, 1.95607805e-04,
          1.35361872e-04, -3.11148287e-05, 6.40114740e-06,
          5.47089039e-05, 9.79094693e-07, -7.59106260e-05,
          -1.30138278e-05, 2.11654406e-04, 4.44602556e-05,
          3.72569157e-05, 1.98418798e-04, 2.37904736e-04, 1.75925758e-04,
          1.77046153e-04, 1.33839436e-04, 1.99653572e-04, 2.69072247e-04,
          7.65785298e-05, -1.40664881e-04, -7.56794325e-05,
          -5.27953889e-05, 2.35217667e-04, 1.77726833e-04,
          -2.29723431e-04, 2.06826940e-06, -1.54216061e-04,
          -1.62025244e-04, -1.00680838e-04, 3.44131375e-04,
          3.91533395e-05, 1.25504128e-04, -1.24639570e-04,
          1.37152281e-04, -2.47291428e-05, -1.68038314e-04,
          2.60119792e-04, 1.71509470e-04, 2.44227616e-04, 2.45523825e-05,
          -1.82913762e-04, 1.29207938e-05, 2.01927687e-05,
          6.02710588e-06, 2.52769114e-05, 1.09508888e-04,
          -2.50191137e-04, -2.84636306e-04, -9.25639033e-05,
          -7.56781155e-05, -1.20389639e-04, 1.75785481e-05,
          -1.50921478e-04, 1.33443973e-04, 7.73565407e-05,
          -6.21508807e-05, -4.29749110e-04, -6.30568247e-05,
          9.14642951e-05, -2.02498723e-05, 5.06022261e-05,
          -1.54247900e-04 ]
      - [ 2.22986884e-04, 4.57566857e-05, -1.40569682e-04,
          -2.81770597e-04, -1.74276342e-04, 2.92277018e-05,
          7.60841140e-05, 2.27960718e-05, -8.11482678e-05,
          -7.16583381e-05, -3.38456193e-05, -1.46160828e-05,
          -1.56370079e-04, -1.44718098e-04, -3.07872006e-06,
          1.69083083e-04, 2.75129896e-05, 7.76695379e-06,
          -2.99866406e-06, 1.70987198e-06, 2.59641693e-05,
          4.60210640e-06, 7.32174112e-06, -8.38676533e-06,
          -7.02129328e-05, -4.48659666e-05, 9.36601209e-05,
          6.88069777e-05, 7.64122087e-05, -9.76362135e-05,
          3.37304591e-05, -4.68692560e-05, 7.03784899e-05,
          1.21868092e-04, 3.63143517e-05, -3.08468414e-04,
          -1.37803247e-04, -1.17953954e-04, 1.02729224e-04,
          4.48137907e-05, 1.06277424e-04, 1.16648385e-04,
          -2.11645165e-05, 4.70462364e-05, -1.79179260e-04,
          -1.13169757e-04, -1.02045393e-04, 4.28210296e-05,
          -8.11483842e-05, 1.52586908e-05, -1.55987465e-04,
          1.85334065e-05, 2.95627069e-05, -1.20417053e-05,
          5.61356828e-05, -6.00170570e-05, -7.12795081e-05,
          -1.54777037e-04, -9.39090169e-05, 1.06704218e-04,
          3.55154152e-05, -2.72117868e-05, -5.40781366e-05,
          -2.03941090e-05 ]
      - [ 7.86004530e-05, -3.91401773e-06, 7.40357791e-05,
          -3.21307394e-04, -2.25187341e-05, -1.52570885e-06,
          1.36438146e-04, -1.96755864e-04, -3.80325946e-05,
          -1.60684620e-04, 2.72419362e-04, 4.27693703e-05,
          3.31806473e-06, 1.72212109e-04, -2.51208876e-05,
          4.36701121e-05, -9.58369128e-06, -6.28444977e-05,
          5.03319607e-05, 2.09164966e-04, 6.82645914e-05,
          -1.34177433e-04, -1.07194115e-04, -1.41467171e-04,
          9.17137004e-05, 5.30071520e-05, -1.05355648e-04,
          -5.64816910e-05, -1.00158377e-05, -3.43695370e-04,
          -1.40216755e-04, -6.82613609e-05, 6.04023298e-05,
          2.97119317e-04, -1.32598783e-04, -3.70718568e-04,
          -2.58404936e-04, -1.53973408e-04, -3.71433043e-06,
          1.60528274e-04, 2.34640334e-04, -2.85609331e-05,
          -8.18040717e-05, -2.51001125e-04, -8.19838315e-05,
          -1.48908919e-04, -1.71105803e-05, -3.17596168e-05,
          -4.57292808e-05, -1.03064711e-04, -6.79308359e-05,
          -7.89905826e-05, -6.26078981e-05, 6.68393695e-05,
          -5.72702593e-05, -1.30942839e-08, 2.05224314e-05,
          -4.56076305e-06, -2.66494520e-04, -6.56898992e-05,
          3.25848050e-05, -1.52196299e-04, 1.68798942e-04,
          6.63351675e-05 ]
      - [ 2.93085213e-05, -8.28997945e-05, -1.20628014e-04,
          -2.27803685e-04, -5.38221757e-05, -1.92970383e-05,
          -1.91659492e-05, -1.53160352e-06, -1.70548112e-04,
          -1.52976150e-04, 1.24604834e-04, -2.10486796e-05,
          -1.03417195e-04, 2.01977127e-05, 3.27756561e-06,
          2.15317978e-05, 1.55127505e-04, 9.09482696e-05,
          -7.41334952e-05, 3.06590809e-05, 2.30470196e-05,
          -6.10830175e-05, 2.49703644e-05, 1.87666345e-07,
          4.82745127e-05, -4.39953765e-05, -8.91837772e-05,
          8.83167304e-05, 7.87072076e-06, -2.41658781e-04,
          4.77197573e-05, 1.21114092e-04, 1.90555991e-04, 2.28659104e-04,
          -8.28907941e-05, -2.50800629e-04, -1.20740151e-04,
          -1.64399098e-04, 3.63955223e-05, 2.03166681e-04,
          1.25898674e-04, 7.52937922e-05, -6.51812798e-06,
          4.34536361e-07, -8.14070445e-05, -1.45091632e-04,
          -5.66686722e-05, 4.38173665e-05, -1.68323066e-04,
          -4.30632645e-05, -8.51281802e-05, 3.27264729e-06,
          -4.93133994e-05, 4.82910073e-05, 1.42111137e-04,
          2.14279371e-05, -1.38475021e-04, -2.49869801e-04,
          -3.83714505e-05, 1.48576873e-04, 9.24460164e-06,
          -8.26759788e-05, -2.01954026e-05, -1.46170962e-04 ]
      - [ -1.25021164e-04, -1.89569604e-04, -3.30506737e-04,
          -1.30658140e-04, -5.36273059e-04, 6.24997832e-04,
          1.60114650e-04, -6.32549345e-05, 6.18824633e-05,
          -3.22345906e-04, 2.00161187e-04, 2.28563440e-05,
          1.15878691e-04, 6.40284343e-05, -2.55359191e-04,
          -4.13695205e-04, 1.74948786e-04, 3.31332616e-04,
          3.60126229e-04, 4.60174080e-04, -1.82296484e-04,
          -9.22120526e-04, -4.07461717e-04, 5.73168392e-04,
          3.47143796e-05, 8.03267409e-04, 1.56424197e-04,
          -2.76624050e-04, -2.77958781e-04, -8.58311541e-05,
          -1.39580181e-04, 1.96976980e-04, 6.35745004e-04,
          8.91435848e-05, -1.50422376e-04, 2.41380389e-04,
          -5.67015995e-05, -1.67912367e-04, 3.17074737e-04,
          4.09868459e-04, 2.03328425e-04, -1.41973709e-04,
          -1.48273073e-04, 7.30878237e-05, 2.15803229e-04,
          -2.96922281e-06, 3.98188946e-04, 6.95792551e-04,
          -6.26511639e-04, -8.05965043e-04, -4.41950797e-05,
          4.30015236e-04, 3.08971852e-04, 1.73370194e-04,
          -4.34688642e-04, 2.24978328e-04, -3.73662682e-04,
          -3.53107258e-04, 1.31018198e-04, 3.03231300e-05,
          1.40739969e-04, 2.86062656e-04, 6.44822198e-04,
          -2.56305997e-04 ]
      - [ -1.62188109e-04, -1.80469622e-04, -1.67586870e-04,
          1.77360373e-04, -6.90417801e-05, -3.58064085e-06,
          -2.17937981e-04, -8.44325623e-05, -1.54315552e-04,
          -3.11327422e-05, 5.30054931e-05, 5.49692450e-05,
          1.30242319e-04, 1.36788469e-04, 2.00993702e-04,
          -5.24233292e-05, 4.55965019e-05, 1.50934371e-04,
          1.35140945e-04, 2.06691562e-04, 3.53686701e-05, 2.72478610e-06,
          -3.17442427e-05, 4.05691644e-05, -5.56058912e-05,
          -1.98869209e-04, 6.54380783e-05, -4.16296789e-05,
          2.42790120e-05, -3.74030424e-05, -9.60196485e-05,
          -2.33879291e-05, -5.22841492e-06, -1.23380305e-04,
          -1.08517197e-04, -1.03226266e-05, 1.59452566e-06,
          5.02966977e-05, -2.26870925e-05, 7.08507505e-05,
          1.78549180e-05, 9.11326715e-05, 2.22914401e-04, 1.60403972e-04,
          9.56068616e-05, 1.44758305e-04, 9.15961427e-05, 2.78280531e-05,
          6.46773697e-06, -7.73276952e-06, -3.23759668e-05,
          1.46902559e-04, 1.60208219e-04, 1.94220731e-04, 1.62738816e-05,
          1.83010870e-05, -1.13504488e-04, -1.20660399e-04,
          -5.73964571e-05, -9.34527125e-05, 9.52432019e-05,
          -8.55261023e-05, -9.18756705e-05, -3.08447721e-04 ]
      - [ -1.42128207e-04, -1.01623773e-04, -2.06903987e-05,
          -5.47968775e-05, 3.57365680e-05, 6.97549476e-05,
          -5.90774516e-06, -6.93453039e-05, -8.94320037e-05,
          -2.12299492e-05, 9.22531472e-05, 6.37093035e-05,
          5.18918205e-05, 3.49349793e-05, -7.05893544e-05,
          -2.61910638e-04, 7.31562104e-05, 7.27901934e-05,
          8.72609307e-05, 6.72726310e-05, -7.82912030e-05,
          5.42901080e-06, 2.70967648e-05, 6.99105585e-05,
          -1.84161054e-05, 1.31028879e-04, 5.49853030e-05,
          5.66071458e-06, -6.69052097e-05, -3.46338602e-05,
          -6.38902202e-05, 1.31931796e-04, 1.89367609e-04,
          8.90001393e-05, 5.63728172e-05, -5.68405594e-05,
          -3.38662358e-05, -6.70949594e-05, 3.33534263e-05,
          9.58286109e-05, 1.11100737e-04, 1.23317045e-06,
          -1.33552734e-04, -2.23733994e-04, -1.00509365e-04,
          8.32028163e-05, 3.42602361e-05, 1.30753819e-04,
          -1.93997708e-04, -3.95943534e-05, -4.19751559e-05,
          6.09406634e-05, -4.53555331e-05, -4.74861918e-06,
          -4.70101004e-05, -6.28158250e-06, -1.00798752e-04,
          -2.19241538e-05, 1.06049501e-05, 1.23115839e-04,
          6.38003039e-05, 8.87881906e-05, 5.11050075e-06,
          -2.82312412e-05 ]
      - [ -1.81822776e-04, -1.54976195e-04, 5.44702707e-05,
          1.00657184e-04, 8.51804143e-05, 1.21959936e-04, 1.15108442e-05,
          -2.84921443e-05, -6.19485945e-05, -8.83596003e-05,
          -1.91415602e-05, 1.26063023e-04, 1.06796128e-04,
          1.49497864e-04, 2.60209577e-04, -2.65332583e-05,
          4.11018391e-06, 8.18209082e-05, 1.28092433e-04, 2.30605947e-04,
          -6.96799034e-05, -5.38505701e-05, -6.74774346e-05,
          2.89455857e-05, 9.12027645e-06, 5.12118859e-05, 6.53491225e-05,
          1.34496760e-04, -1.73600463e-04, 1.26869054e-04,
          -4.99146954e-05, -2.63387756e-05, 1.62956476e-05,
          -1.61690608e-04, 1.20623872e-05, -1.30909379e-04,
          4.26875376e-05, 1.01210126e-05, 1.49130472e-04, 2.09492428e-04,
          8.67793133e-05, -1.83679349e-05, -1.30286498e-05,
          -3.81008431e-05, 1.24448474e-04, 2.26491204e-04,
          1.66546015e-04, 1.30724686e-04, -1.01828380e-04,
          -8.83611574e-05, -1.21200414e-04, 1.24554645e-04,
          6.45824766e-05, 6.72055539e-05, -1.30710978e-04,
          2.06935947e-05, -4.19301905e-05, -9.46111395e-05,
          -1.88693026e-04, -2.24256091e-05, -2.55296763e-05,
          -1.36095245e-04, -5.93968107e-05, -9.75363218e-05 ]
      - [ 3.37002421e-04, -2.26848060e-05, -2.08605037e-04,
          2.83371246e-05, -2.78445194e-04, 2.29836995e-04,
          4.16344301e-06, -1.19635624e-05, -9.49260429e-05,
          -9.04412300e-05, 1.75023393e-04, -7.57111848e-05,
          -1.51646615e-04, -1.18562675e-04, 3.97977565e-05,
          1.17967895e-04, -7.07535219e-05, -1.72083692e-05,
          8.91864402e-05, -1.09327666e-04, -1.96887879e-04,
          1.64339450e-04, 1.15545590e-04, 1.52371082e-04,
          -2.08609999e-04, -2.60481000e-04, 6.54604883e-05,
          1.53509973e-04, 4.06572566e-04, 1.29068736e-04, 2.27714714e-04,
          -2.01874627e-05, 2.98842118e-04, -3.41944069e-05,
          1.30241984e-04, -4.08059313e-05, -1.78908769e-04,
          1.76455505e-04, 2.26800999e-04, 2.53026485e-07, 9.46523651e-05,
          1.43059742e-05, 2.68470641e-04, 4.82275209e-05, 6.78411452e-05,
          6.64971085e-05, 2.94985293e-05, -6.79166405e-05,
          2.23738480e-05, -2.09477381e-04, -2.67357012e-04,
          4.03392187e-04, 1.39843150e-05, -1.34532202e-05,
          2.82150904e-05, 7.05929706e-05, -2.45687203e-04,
          -1.11347814e-04, 1.46344573e-05, 1.13729933e-04,
          5.10605867e-04, 9.78818862e-05, -2.17771754e-04,
          -4.18107898e-04 ]
      - [ -1.64626894e-04, -2.87437288e-04, -3.25619971e-04,
          -3.01000662e-04, 2.13920110e-04, 3.01855238e-04,
          -9.59249854e-04, -5.09112666e-04, 8.05162708e-05,
          -3.35743272e-04, 3.58418765e-04, 4.99272195e-04,
          -1.44425125e-04, 3.84919840e-04, -4.16372728e-04,
          -3.83423205e-04, 9.20822058e-05, 2.27276891e-04,
          4.17497824e-04, 9.03816719e-04, -2.83896399e-04,
          -5.97716193e-04, 1.35627357e-04, -3.09430645e-04,
          -2.12090185e-07, 5.47143340e-04, 2.01761868e-04,
          5.70702796e-05, 1.25181657e-04, -5.10939790e-05,
          6.68367429e-05, 4.27548017e-04, 7.84569886e-04, 1.48423598e-04,
          -4.64801968e-04, -4.43436118e-04, -8.04400188e-05,
          -4.35640279e-04, 3.81014593e-06, 4.84481105e-04,
          5.55385122e-05, -5.75551494e-05, 7.62951604e-05,
          -1.40423581e-04, 1.40552424e-04, 6.96834177e-04,
          4.56569309e-04, 7.84139091e-04, -6.64066931e-04,
          -7.28234241e-04, 1.14156741e-04, 1.55219837e-04,
          1.95218454e-04, 6.79893361e-04, 1.54595662e-04, 2.44688796e-04,
          -7.31258770e-04, -2.54399667e-04, -8.15563835e-05,
          2.10935788e-04, -3.29690549e-04, 3.52232426e-04,
          -3.46852496e-04, -2.76951236e-04 ]
      - [ -9.75692310e-05, -2.07286779e-04, -6.28841153e-05,
          6.78700380e-05, 3.49047477e-05, -2.86745149e-06,
          -7.08471198e-05, -5.38960558e-05, -6.49471112e-05,
          -6.36265977e-05, -6.08033370e-05, -1.06670068e-05,
          1.10988367e-04, 2.93450994e-05, 4.94815758e-05,
          -8.16545871e-05, 2.29003708e-05, 1.05216102e-04,
          2.71920198e-05, 1.97582034e-04, -1.09329681e-04,
          -2.86335089e-05, -3.74299052e-05, 5.86978931e-05,
          -2.22205836e-05, -1.70693194e-04, 2.70686596e-05,
          7.00468008e-05, -3.42428466e-05, 1.64880039e-05,
          3.52009520e-05, 4.79400769e-05, 1.41303011e-04, 1.71261854e-05,
          -1.71829779e-05, -6.61243757e-05, -4.37501549e-05,
          -1.16835345e-05, 7.06286592e-05, 2.53122616e-05,
          1.06502339e-04, 1.02314356e-04, 4.38770576e-06,
          -9.43371197e-05, -2.43644572e-05, 6.37128542e-05,
          1.27980056e-05, 1.20810524e-04, -9.62085032e-05,
          -1.34203738e-05, -8.08646291e-05, 1.11099471e-04,
          1.42969075e-04, 1.05024010e-04, 8.86173148e-05,
          -2.57157117e-05, -4.31341068e-05, -1.37499839e-04,
          7.74974542e-05, 1.93253509e-04, 1.09235443e-04, 6.87237116e-05,
          -9.86975137e-05, -1.68160870e-04 ]
      - [ -1.65692647e-04, -6.67081622e-05, 1.87294172e-05,
          1.58509982e-04, 2.81531775e-05, 2.08403362e-05,
          -1.86390374e-04, -9.71589179e-05, -1.35173541e-04,
          -5.75272725e-06, -3.30121802e-05, 1.73446388e-04,
          1.05464525e-04, 2.17682027e-04, 8.39885543e-05,
          -3.40052866e-05, -1.52926441e-04, 1.13786946e-05,
          1.33343827e-04, 2.71495344e-04, 1.41620520e-04, 7.79322218e-05,
          4.22433877e-05, -8.79269180e-07, -2.55500145e-05,
          -1.04873419e-04, 5.13426785e-05, 2.05175695e-07,
          -4.61605487e-06, -5.23172966e-05, 1.23321195e-04,
          -7.63828575e-06, -2.25201336e-04, -1.79224575e-04,
          -1.02328318e-04, -6.90988381e-05, 5.94265402e-05,
          8.68431962e-05, 1.64744648e-04, -4.15325485e-06,
          3.82190683e-06, -1.82389085e-05, -1.06777399e-04,
          1.03025282e-04, 2.95725640e-05, 2.15892680e-04,
          -1.03705897e-05, 1.84883193e-05, 1.41618904e-04,
          6.58314748e-05, 1.01336109e-05, -1.13597649e-04,
          -7.17066359e-05, 9.49398018e-05, -1.29134387e-05,
          -4.90536404e-05, -2.09884420e-05, -1.84627643e-05,
          9.67708093e-06, -1.80484829e-04, -6.15056197e-05,
          -5.87531849e-06, -1.02297992e-04, -2.77550804e-04 ]
      - [ -3.77002812e-04, -1.52020744e-04, 1.29930586e-05,
          2.97201332e-04, 2.64309434e-04, 5.92932047e-05,
          -3.07384820e-04, -3.99556855e-04, -1.69033985e-04,
          2.08165075e-05, 1.86717196e-04, 2.07542340e-04, 2.23726951e-04,
          1.81877491e-04, 8.80908265e-05, -5.22147922e-04,
          4.26089973e-05, 2.63544425e-05, -5.61542629e-06,
          1.24073427e-04, 1.36170522e-04, 1.36820410e-04, 2.56705418e-04,
          1.54622816e-04, -4.56434609e-05, 2.03521577e-05,
          -7.02355537e-05, -1.41195182e-04, 9.12567193e-05,
          1.40149627e-04, 1.44594451e-04, 2.35627187e-04, 2.42062946e-04,
          1.06212123e-04, -3.34449796e-05, -3.15871584e-04,
          7.05990242e-05, -1.98117967e-04, -2.35424704e-05,
          3.27515823e-04, 4.90806473e-04, 3.04198620e-04, 8.97998034e-05,
          -4.36007278e-04, -3.64599749e-04, -1.11579495e-04,
          1.63460048e-04, 2.23452385e-04, -5.42390444e-05,
          1.75188659e-04, 4.03809790e-05, -2.46011594e-04,
          -9.11129246e-05, -1.06763211e-04, -2.00890427e-04,
          -3.80858037e-05, -9.24529231e-05, -5.25743126e-05,
          -8.06475291e-05, -1.66991187e-04, -1.31762776e-04,
          1.43109704e-04, -2.09107864e-04, -4.15956427e-04 ]
      - [ -1.21177945e-04, -1.39415977e-04, 8.89477960e-05,
          1.03749400e-04, 7.90213744e-05, 2.40016871e-05,
          -1.85926310e-05, -7.50463223e-05, -6.86485291e-05,
          -4.99911366e-05, -5.08112098e-05, 1.14436312e-04,
          7.44194986e-05, 9.76979136e-05, 8.81350061e-05,
          -2.34033650e-05, -9.19345257e-05, -4.37549716e-05,
          1.07392851e-04, 8.00612906e-05, 5.49741817e-05, 4.60507508e-05,
          -7.74552791e-06, -3.37581992e-06, -7.66539815e-05,
          -6.23929373e-05, 6.01289139e-05, 9.49933601e-05,
          4.72852298e-05, -2.21579485e-05, 1.20000573e-06,
          -2.37024742e-05, -3.63230247e-05, -7.03529586e-05,
          -3.80451966e-05, -4.15281356e-05, 4.30568107e-05,
          1.97790087e-05, 8.54327009e-05, 1.26617058e-04, 3.57356621e-05,
          -5.78341642e-05, -6.18921913e-05, 1.25581128e-05,
          2.81338416e-05, 6.98539734e-05, 1.14294826e-05, 8.84305045e-05,
          5.50483605e-08, 9.44980275e-06, -2.21916853e-05,
          -5.48386888e-05, -3.66645399e-05, 3.97532167e-05,
          6.01938109e-06, 4.22897501e-05, 1.81933246e-05, 6.51014352e-06,
          -3.64536500e-05, -1.79241033e-04, -3.89942761e-06,
          6.95927474e-06, 5.06940596e-05, -1.56400711e-05 ]
      - [ 2.19953698e-04, 9.12710602e-05, 3.70102847e-04,
          -8.76991471e-05, -3.60848091e-04, -2.04130833e-04,
          4.86811223e-06, -8.24289673e-05, -3.75964271e-04,
          -6.48811110e-05, 1.89391096e-04, -1.93931206e-04,
          2.66568939e-04, -2.00588445e-04, 8.75254045e-05,
          -1.05643659e-04, -2.24764644e-05, 2.90043914e-04,
          8.23063328e-06, 1.53031709e-04, 1.89079612e-04, 3.67454224e-04,
          1.42272329e-04, 4.43138633e-05, -2.55463150e-04,
          -8.73789133e-04, -3.89931403e-04, 1.65499689e-04,
          5.81409025e-04, 1.55423972e-04, 9.05082197e-05,
          -6.09080191e-04, -2.67574433e-05, 4.61923570e-04,
          -1.29880036e-05, -4.91351355e-04, -1.18612938e-04,
          2.14796426e-04, 3.31407384e-04, -2.43306291e-04,
          -5.70795091e-05, 3.08713730e-04, 2.11256687e-04,
          -3.69189336e-04, 2.92476587e-04, -1.19973098e-04,
          -1.03560335e-04, -4.95352491e-04, -3.60444428e-05,
          -1.65381512e-04, -3.87697452e-04, -1.02683523e-04,
          -4.55983827e-05, -1.06052896e-04, -1.34542439e-04,
          2.65557464e-04, -2.40264548e-04, -2.37432396e-04,
          5.98771039e-05, 1.98568159e-04, 4.64915065e-04, 3.69397858e-05,
          -2.65413924e-04, -5.98191982e-04 ]
      - [ -1.26468018e-04, 7.54120083e-06, 1.20888981e-04,
          2.51605903e-04, 1.80951421e-04, -3.07773473e-04,
          -3.46528104e-04, -2.62699235e-04, -2.16691347e-04,
          -6.28639173e-05, 7.34929490e-05, 4.22041194e-04,
          2.57996406e-04, 7.54289213e-05, -8.73674435e-05,
          -1.85786179e-04, -5.78895968e-04, 7.66747908e-05,
          -2.10278246e-04, 3.88877495e-04, 4.74865054e-04,
          1.79192037e-04, 2.14291300e-04, -1.09303423e-04,
          -1.12960879e-04, -5.04999771e-04, -1.84959019e-04,
          1.87987520e-04, 1.23433580e-04, 6.26324691e-05, 7.74774089e-05,
          -6.14534656e-05, -3.46890767e-04, -2.83592759e-04,
          -2.38018165e-05, -4.43204917e-04, -9.92206114e-05,
          -2.56790488e-04, -1.67037979e-05, 9.01372623e-05,
          1.14487542e-04, 2.08714569e-04, -8.31340512e-05,
          -1.68323349e-05, -1.29844149e-04, 1.36395436e-04,
          -1.10039332e-06, 1.83666023e-04, 6.54780670e-05,
          4.15737741e-04, 1.77851267e-04, -1.05565574e-04,
          -1.00427213e-04, 4.34875001e-05, -1.64286539e-05,
          1.01391895e-04, -1.44430069e-05, 2.06752651e-04,
          -2.85905189e-05, -2.58904765e-04, -2.30959835e-04,
          -1.45695914e-04, -1.21544930e-04, 1.82044168e-05 ]
      - [ -2.35615240e-04, -1.12183981e-04, 1.38353062e-04,
          5.21173570e-05, -6.34615071e-06, -1.47553772e-04,
          -3.67752364e-04, -2.33392493e-04, -2.69300654e-04,
          -2.56972213e-04, -7.99059053e-05, 1.16031260e-04,
          2.78507330e-04, 2.41747795e-04, 1.70048836e-04,
          -2.50127196e-04, -8.65237234e-05, 1.33144451e-04,
          1.33810317e-04, 1.71118969e-04, 4.15553113e-05, 7.06726278e-05,
          1.59381350e-04, 3.52441639e-05, -1.33301422e-04,
          -3.34130542e-04, -7.33674533e-05, 9.19477679e-05,
          -1.74164925e-05, 4.08700180e-06, 9.31570685e-05,
          4.49841900e-05, 4.52302775e-05, -9.48588495e-05,
          -5.09806014e-05, -2.99255829e-04, -8.86198322e-05,
          -3.00346619e-05, 2.51040387e-04, 6.66699316e-06,
          1.44361824e-04, 1.59758230e-04, 1.73035969e-05,
          -1.03227634e-04, -1.27857726e-04, -5.52853708e-05,
          -7.71441555e-05, -3.74848569e-05, 1.83521133e-05,
          4.42159544e-05, -1.67126946e-05, -4.89495960e-06,
          -9.15173659e-05, 1.13360860e-04, 8.58171261e-05,
          -6.80037192e-05, -1.10398396e-04, -1.50563239e-04,
          3.13416327e-04, 1.26401195e-04, -3.82024155e-05,
          5.56797604e-05, -1.33298163e-04, -4.80731163e-04 ]
      - [ 1.41639393e-05, 2.23207990e-05, 1.70358248e-06, 1.41294595e-05,
          4.20304750e-05, 8.80345324e-05, 1.01117766e-04, 2.44753064e-05,
          -1.32342348e-05, 2.51616475e-05, -1.86830839e-05,
          -1.86748657e-05, -1.22401570e-06, 2.00084060e-06,
          -1.82825206e-05, -1.78832779e-04, 4.44584039e-05,
          -3.14691169e-06, -7.50311010e-05, -8.85338886e-05,
          -3.29138820e-05, -2.42118203e-05, 1.59580213e-06,
          9.63859202e-06, 5.03954107e-05, 6.62078601e-05, 5.21499533e-05,
          -2.35601256e-05, -4.99625130e-05, 3.99880519e-05,
          3.30752591e-05, -4.72776401e-06, 1.48676467e-04,
          1.66397425e-04, 1.13579161e-04, -3.49201291e-05,
          -6.43144085e-05, -5.64900583e-05, -4.65254489e-05,
          1.10594570e-04, 1.20959434e-04, -1.52484763e-05,
          -1.21599711e-04, -1.92169275e-04, -7.24436395e-05,
          -9.83365953e-06, -2.74169051e-05, 6.13762677e-05,
          -8.18494518e-05, -1.42639357e-04, 6.32023803e-05,
          -8.40033899e-05, -3.29448376e-05, -6.65299813e-05,
          -2.97674069e-05, -2.07619451e-06, 6.45172695e-05,
          6.11880023e-05, -1.63413370e-05, -2.81556652e-07,
          3.50163828e-05, 8.22191432e-05, 1.22401500e-04, 1.11560286e-04 ]
      - [ 1.24756756e-04, 1.50607317e-04, 6.43258856e-04, 1.02550606e-03,
          1.67588907e-04, 1.60061114e-04, 4.38101415e-04,
          -1.61634147e-04, 1.97290370e-04, 2.34240404e-04,
          2.25967713e-04, 4.88998703e-05, 7.94855805e-06, 7.72591011e-05,
          5.08327066e-05, -4.50101616e-05, 4.93187435e-05,
          -1.24195984e-04, 1.75524736e-04, 1.72755870e-04,
          3.70868045e-04, 3.19171158e-06, -2.27344586e-04,
          -2.05720891e-04, -5.60077315e-04, 7.29027670e-04,
          -2.34013700e-04, 4.99799149e-04, -1.29480206e-04,
          6.72895927e-04, 3.34363831e-05, -1.72626605e-04,
          5.48301730e-04, 3.97704280e-04, -3.94657749e-04,
          9.91955494e-06, -3.44742119e-04, -2.05353790e-04,
          -1.27348903e-04, 1.63284873e-04, 9.49099704e-05,
          -3.59195954e-04, -1.13695663e-04, -3.39491089e-04,
          -7.43317651e-05, -4.87730606e-04, -1.44179357e-04,
          1.75182606e-04, -2.49287241e-05, -3.37625999e-04,
          -1.16801973e-04, -4.54444962e-05, -6.33987598e-04,
          3.05683818e-04, -5.77768486e-04, -4.05004248e-04,
          9.62118293e-07, 1.95890781e-04, -5.90812822e-04,
          -5.05079341e-04, -5.48851502e-04, -1.77064387e-04,
          5.84652531e-04, 3.41208914e-04 ]
      - [ 1.91222687e-04, 1.09811677e-04, -2.39806286e-05,
          -1.08164662e-04, -1.58990515e-04, 4.75303241e-05,
          1.27801017e-04, 1.14300979e-04, 6.72291935e-05, 3.22345295e-05,
          -1.25762090e-04, -1.05447580e-04, -1.74413159e-04,
          -1.35721173e-04, -2.94146776e-05, 3.03295637e-05,
          -4.33517234e-05, -1.33084948e-04, -7.21211254e-05,
          -5.48497264e-05, -3.04844543e-05, 9.78107055e-05,
          6.22899315e-05, 2.68088952e-05, -3.39000180e-05,
          3.77532706e-05, 1.24558210e-05, 5.54528669e-05, 9.94465008e-05,
          1.40829332e-04, 8.53290621e-05, -2.13750463e-05,
          1.75821071e-04, 2.42554044e-04, 1.44589838e-04,
          -1.08921522e-04, -7.75595399e-05, 5.20643371e-05,
          -1.66536040e-06, 5.64408620e-05, -7.57396192e-05,
          5.76300372e-05, -2.15354048e-05, -2.84622856e-05,
          -1.72892978e-04, -8.16828251e-05, -9.53300041e-05,
          -1.05053223e-04, -1.08543019e-04, -1.04109786e-04,
          -1.26036830e-04, 1.15684219e-04, 2.48353444e-06,
          6.75545243e-06, -1.29974054e-04, -5.35927102e-05,
          -4.73367472e-05, -6.41750157e-05, 4.35658039e-05,
          1.81752883e-04, 9.89963519e-05, 1.10917907e-04, 4.39359828e-05,
          7.00569872e-05 ]
      - [ 1.71111998e-04, 1.51150511e-04, 2.35459316e-04,
          -1.21140329e-04, -3.24696332e-04, -8.44088299e-06,
          3.15199170e-04, 2.52722006e-04, 2.75886414e-04, 1.78779970e-04,
          -4.14408132e-05, -1.27985608e-04, -3.34664452e-04,
          -7.91296188e-05, -1.55955422e-04, 3.37206329e-05,
          -7.34415080e-05, -1.39502445e-04, -1.54810026e-04,
          2.01630010e-05, 7.47109807e-05, -6.35758115e-05,
          -1.22396072e-04, -2.54715444e-04, -2.99811327e-05,
          1.48414663e-04, 2.00143491e-04, -2.07632220e-05,
          1.17467731e-04, -1.33996064e-05, -1.26917672e-04,
          -2.46722047e-04, 2.47363001e-04, 1.06474487e-04,
          7.59967588e-05, -7.42456541e-05, -2.50837387e-04,
          -2.43209259e-04, 6.72259630e-05, -3.23109452e-05,
          -6.09676790e-05, -6.65144762e-05, -4.97904839e-04,
          -6.17360754e-04, -3.92927905e-04, -3.82977218e-04,
          -1.18396310e-04, -4.40032381e-05, -2.52524158e-04,
          -8.65986440e-05, 3.04452897e-05, -7.53807108e-05,
          -7.73762804e-05, -1.00224272e-04, -3.81941325e-04,
          -1.59360847e-04, 3.18310813e-05, 1.32872781e-04,
          5.96898644e-05, 1.64298181e-04, 7.44701392e-05,
          -1.63227505e-05, 3.28867027e-04, 1.23125428e-04 ]
      - [ 1.58570881e-04, 3.77513425e-05, -1.60094525e-04,
          -2.19777139e-04, -7.75256558e-05, 4.03214159e-04,
          1.72350803e-04, 3.43992433e-05, -4.74430781e-05,
          -2.13229010e-04, -9.51323964e-05, -4.03472484e-04,
          -3.47181718e-04, 3.27748094e-05, 3.51438321e-05,
          -1.13141097e-04, -9.06368732e-05, -1.19607350e-04,
          -6.96490344e-04, -1.67415274e-04, -1.79319861e-04,
          -3.76356009e-04, 1.83316210e-04, 8.14148079e-05,
          -1.62485361e-04, -2.50565849e-04, 2.35987172e-04,
          2.78743479e-04, 1.99447022e-04, 9.21457904e-05,
          -2.14111555e-04, 1.78723436e-04, 2.62445799e-04,
          2.37355547e-04, 1.00644385e-04, -1.39049196e-04,
          -3.35620774e-04, -6.35877484e-04, -2.34215200e-04,
          1.33922149e-05, 2.25566819e-05, 2.00445909e-04,
          -3.77765682e-04, -4.55266127e-04, -4.26274812e-04,
          -7.57476548e-04, -2.44763680e-04, -1.05268009e-04,
          -2.72978883e-04, 3.58084362e-05, 6.89915323e-05,
          7.26701634e-04, 2.97022983e-04, 3.20422580e-04,
          -1.55324844e-04, -1.10677662e-04, -6.17072801e-05,
          -8.87315109e-05, 5.29570971e-04, 4.92813881e-04,
          2.01076691e-05, 3.58736463e-04, 7.03095338e-06, 2.57940756e-05 ]
      - [ 7.63766147e-05, -9.93458889e-05, -4.82530013e-05,
          1.30559711e-04, 1.18888987e-04, 4.74496665e-05,
          -2.56249186e-05, -6.02835498e-05, -9.88960892e-05,
          -2.20486123e-04, 6.43830281e-05, -1.98730449e-05,
          3.21970538e-06, 7.97091852e-05, 1.14092938e-04, 1.47867264e-04,
          -2.65563285e-04, -2.29781454e-05, 2.08963131e-04,
          -5.70641641e-05, 6.29510178e-05, 8.38873966e-05,
          -3.98141528e-05, -3.49673646e-05, -8.05737509e-05,
          -1.11268586e-04, -1.25952156e-05, 1.67788079e-04,
          2.38931942e-04, -6.07290640e-05, -1.57997215e-06,
          -1.80602146e-04, -9.76239171e-05, -2.19013527e-04,
          -1.24096638e-04, -9.75087169e-05, 1.45950107e-04,
          1.79394323e-04, -3.26672562e-05, 1.71521999e-04,
          -8.87847127e-05, -1.97025456e-05, 2.14529427e-04,
          3.24382272e-04, 1.00968995e-04, -5.02471339e-05,
          5.68137807e-07, -3.97264157e-05, 3.60205559e-06,
          2.19694324e-04, -7.83109790e-05, -2.00344773e-04,
          3.51112249e-05, 2.59430264e-04, 1.10035427e-04,
          -4.17865558e-05, 1.55412090e-05, -1.36925519e-04,
          -9.27881338e-05, -1.18963835e-04, -2.39020650e-04,
          -4.33129608e-05, 1.00686062e-04, 6.21626968e-05 ]
      - [ 1.45294456e-04, 3.91377980e-05, -1.01577687e-04,
          -1.63314580e-05, -9.54821153e-05, -4.53579814e-05,
          -6.49131107e-06, 3.48569483e-05, -4.69559673e-05,
          -4.48983337e-05, 1.13873948e-05, -1.27038613e-04,
          -1.29699270e-04, -2.10029193e-05, 1.02501086e-04,
          2.12548621e-04, -2.66573388e-05, 4.30423970e-05,
          -1.48172821e-05, 5.46043011e-05, 6.45504551e-05,
          6.97683790e-05, 4.37989875e-05, 7.65496134e-06, 3.28190326e-05,
          -1.06967360e-04, -3.88868866e-05, 4.43221106e-05,
          1.31711058e-04, 1.39173892e-04, 2.71276331e-05,
          -5.68602445e-05, -5.13589112e-05, -4.38211027e-05,
          -1.19528186e-05, -1.58278601e-06, 1.02536160e-05,
          1.16030213e-04, 1.05426785e-04, -6.28556372e-05,
          -1.02527702e-04, -2.42249480e-05, 1.17757998e-04,
          2.26476957e-04, 2.00292998e-05, -2.77460385e-05,
          -7.13527334e-05, -1.44156467e-04, -5.41171539e-05,
          4.95340428e-05, -8.43966336e-05, 3.75862874e-05,
          1.81775010e-06, -1.54980025e-05, -1.45408103e-05,
          4.96149878e-05, 2.17001366e-06, -8.86231574e-05,
          4.36256669e-05, -2.69885350e-05, 2.66214865e-05,
          -3.43462443e-06, 1.00214238e-05, 4.63802007e-06 ]
      - [ 6.41206425e-05, 3.30795621e-04, 1.27022489e-04, 2.91130254e-05,
          -5.60040862e-05, -3.91765556e-04, -7.20556563e-05,
          -2.82840279e-04, 3.04435234e-04, -7.17997755e-05,
          -2.27841228e-04, -9.45210559e-06, 2.04512791e-04,
          2.02250521e-04, 1.93627548e-05, 3.40174010e-04,
          -5.71253186e-04, -1.78870483e-04, -3.91785725e-05,
          2.19186171e-04, 2.69129203e-04, 4.85210359e-04,
          -2.66675081e-04, 3.43892134e-05, -7.51903281e-05,
          -2.39706947e-04, -1.76607165e-04, -7.03438491e-05,
          1.67222184e-04, 9.19512149e-06, -1.18677046e-04,
          -1.04906438e-04, -5.80472406e-04, -2.49995879e-04,
          -4.56369657e-04, -2.91485660e-04, -2.03062649e-04,
          2.87510411e-05, -2.09969134e-04, -1.47732193e-04,
          -5.93207697e-05, -2.06821715e-04, 1.35178067e-04,
          7.40419724e-04, 8.41831788e-05, -1.25863080e-04,
          -1.77626163e-04, -3.52019182e-04, 3.22531385e-04,
          3.33152420e-04, 5.06580633e-04, 2.66049494e-04, 3.28137277e-04,
          2.32783379e-04, -2.33472660e-04, 6.19920975e-05,
          -1.40521646e-04, 4.55361769e-05, -1.49610321e-04,
          -1.23466743e-04, -3.74443101e-04, -9.04761109e-05,
          -3.37634738e-05, -2.15074804e-04 ]
      - [ 1.44645965e-04, 4.24607933e-05, -1.77318085e-04,
          -8.15198873e-05, 1.96908622e-05, -5.50547738e-05,
          -3.86435750e-05, -6.76832133e-05, -1.04573257e-04,
          -1.75778769e-04, -2.01755262e-04, 2.98597442e-05,
          -7.08133593e-05, 1.43280500e-04, 1.56655995e-04,
          2.43812101e-04, -8.13478109e-05, -6.55215918e-05,
          -1.18246127e-04, 2.01573275e-04, 1.29072447e-04,
          5.09343226e-05, 7.69215112e-05, -2.69872049e-04,
          -1.87189562e-05, -2.25510186e-04, 2.82497258e-05,
          2.14016502e-04, 2.28225254e-05, 7.83525247e-05, 5.69550539e-05,
          -4.31135704e-05, -8.76322811e-05, -2.04226963e-04,
          -2.40620313e-04, 1.17289652e-04, -2.16115550e-05,
          3.49782131e-05, 1.02683924e-04, -1.65744714e-04,
          3.35248870e-07, -3.07371806e-07, 2.68872478e-04,
          3.14636127e-04, 4.00177414e-05, -9.50938993e-05,
          -8.59556458e-05, -1.84099699e-04, 4.02661681e-05,
          1.40516815e-04, -1.38559495e-04, -5.54172184e-05,
          1.14982518e-04, 9.98542455e-05, 1.38248433e-04,
          -6.26803376e-05, -1.23376740e-04, -1.23496851e-04,
          9.70213587e-05, 9.75788134e-05, -2.53965100e-05,
          -1.02010774e-04, -7.04834456e-05, -1.64892350e-04 ]
      - [ 1.27472260e-04, 1.16717354e-04, -1.01116944e-04,
          -9.02201646e-05, -9.50961476e-05, -8.23061509e-06,
          -6.46262424e-06, 4.00610115e-05, -1.97192021e-05,
          -1.92662469e-06, 1.80403833e-06, -6.63231767e-05,
          -4.61668133e-05, -7.05899365e-05, -5.17645094e-05,
          -1.66699374e-05, -1.94757704e-05, -7.27544684e-05,
          -7.79286056e-05, -5.15974607e-05, -1.89031434e-05,
          3.54203730e-05, 4.57582028e-05, 7.92351784e-06,
          -8.83411703e-05, -7.79379989e-05, -4.86906283e-05,
          -4.20559736e-05, 5.73432189e-05, 2.08666861e-05,
          2.61707446e-05, 2.33358587e-05, 2.00486975e-05, 1.41206780e-04,
          8.64022222e-05, -2.01878174e-05, -3.28066089e-05,
          1.62748001e-05, -1.51368004e-05, -7.70735569e-05,
          -3.74060728e-05, 4.41576885e-05, 1.16242642e-04,
          9.65193613e-05, -1.51470549e-05, -3.60234008e-05,
          -5.17395420e-05, -1.01540041e-04, -5.43538808e-05,
          -2.47910175e-05, -7.44939007e-06, 4.65066732e-05,
          3.02372209e-05, 1.16038223e-06, 6.18115446e-05,
          -2.04836106e-05, -8.27881158e-05, -2.76396204e-05,
          5.95922902e-05, 7.12410983e-05, 6.11355426e-05, 2.18225505e-05,
          -2.83377212e-05, -3.01324258e-06 ]
      - [ 2.44249211e-04, 4.24889004e-04, 6.51543014e-05,
          -3.55837750e-04, -1.51128348e-04, -3.28139344e-04,
          -1.82903139e-04, 3.27709975e-04, -1.72729051e-06,
          -1.57414452e-05, 6.33503150e-05, -6.91748482e-06,
          -2.62490881e-04, -2.10140759e-04, -6.54223433e-04,
          -4.08136140e-04, -7.33419583e-05, -1.66407001e-04,
          -2.30441685e-04, -5.35325796e-07, -1.70662679e-04,
          -6.71423550e-05, 8.19188153e-06, -2.21096775e-06,
          -1.99236834e-04, 4.73204782e-05, -5.80146298e-05,
          -2.68531556e-04, -2.86837731e-05, -1.47787490e-04,
          -5.37701744e-05, 3.20518375e-05, 6.06271315e-05,
          1.73232402e-04, 2.51391117e-04, -3.03522302e-05,
          7.54623034e-05, -9.77479067e-05, -4.03272541e-04,
          -5.06252225e-04, 3.34558827e-05, -6.45551554e-05,
          -9.20126986e-05, -1.19992328e-04, 1.06219093e-04,
          -1.16280658e-04, -9.69744506e-05, -4.12927417e-04,
          -2.78113323e-04, 2.78239400e-04, -2.35236766e-05,
          1.36345305e-04, 3.33847973e-04, -3.87525710e-04,
          6.62766106e-05, -1.91011335e-04, -8.22870861e-05,
          1.84964869e-04, -1.90813280e-05, 1.73663240e-04,
          1.66256097e-04, 6.24375218e-07, 4.03095219e-05,
          -2.66071238e-05 ]
      - [ 2.15902081e-04, 1.22130848e-04, -1.98058624e-04,
          -1.15014482e-04, -3.42364438e-05, 2.02453139e-05,
          1.46686716e-06, 9.70759429e-05, -8.40855282e-05,
          -3.19599385e-05, -7.45249345e-05, -6.86639178e-05,
          -7.67815654e-05, -2.24562045e-05, -6.75544652e-05,
          -4.32359157e-05, 2.77180352e-05, 1.46099956e-05,
          -2.15797423e-04, -1.17076725e-05, -1.03704464e-04,
          -1.00986173e-04, 3.15766993e-05, 5.96438113e-05,
          -2.97850638e-05, -2.44247814e-04, -1.52633638e-05,
          -2.62483682e-05, 1.16880701e-05, 3.53604082e-05,
          -2.84809466e-05, 4.44415818e-05, -3.03998168e-05,
          1.21219513e-04, 1.08270287e-04, -1.49966600e-05,
          -3.79833946e-05, -1.20210490e-04, -1.19988195e-04,
          -2.15630105e-04, -4.42027194e-05, 1.28158892e-04,
          2.34358813e-04, 7.09988308e-05, -1.79917261e-04,
          -1.59481613e-04, -8.98120561e-05, -8.66428163e-05,
          -3.75752534e-05, 1.10128647e-04, 2.46384243e-05,
          9.10137896e-06, 1.74460831e-04, 1.19593926e-04, 2.80234235e-04,
          3.86828724e-05, -8.12834187e-05, -1.26756175e-04,
          1.87083104e-04, 3.34607612e-04, 9.23986809e-05, 8.79079089e-05,
          -4.26370570e-05, -1.45372702e-04 ]
      - [ -2.24440646e-05, -3.96759242e-05, 2.64712173e-04,
          1.55110261e-04, 1.62124576e-04, -1.05019310e-04,
          -1.82985445e-04, -1.56733426e-04, 3.05379974e-04,
          -2.58435557e-05, -2.87212279e-05, 2.62418442e-04,
          1.72611210e-04, 1.36552626e-04, -2.99643376e-04,
          -8.46669791e-05, 1.10344183e-04, -3.24898610e-05,
          6.68399080e-05, 5.80353772e-05, 4.59431467e-05,
          -2.80608452e-04, -2.19239679e-04, -1.26634026e-04,
          1.70910032e-04, 1.75447640e-04, -2.11080824e-05,
          -3.20726249e-05, -2.45471398e-04, -3.18504928e-04,
          -2.41710426e-04, -2.28856479e-07, -1.50225780e-04,
          -2.01786461e-04, -1.17304044e-04, -5.34815172e-06,
          -1.85126104e-04, -1.88337915e-04, 4.65936910e-06,
          -1.60543259e-05, 2.10298414e-04, -4.60978845e-05,
          -1.23827995e-04, -2.17441499e-04, 1.08657268e-05,
          1.09892571e-04, 6.91506739e-06, 1.00060068e-04, 1.43514597e-04,
          6.21559739e-05, 9.42984479e-05, -5.21627444e-05,
          1.11016263e-04, -4.27129416e-05, -5.41699519e-05,
          -6.85314881e-05, 4.81433926e-05, 9.01948151e-05,
          -1.11176614e-05, -1.51706452e-04, -2.94138677e-04,
          -2.51055550e-04, -5.58623869e-05, 1.30383385e-04 ]
      - [ -1.55818954e-04, -9.04522240e-05, -2.00570576e-04,
          7.24811107e-05, 5.90280048e-04, 6.08295668e-04,
          -2.03019692e-04, -8.75124650e-04, 4.13384463e-04,
          2.38888737e-04, 1.11784597e-04, 5.10016573e-04, 5.96262107e-04,
          5.90084637e-05, 1.88933889e-04, -4.84078249e-04,
          6.42232817e-06, 1.02028927e-04, -3.05404174e-05,
          2.89496638e-05, -2.21749360e-05, -6.60411082e-04,
          -4.78158385e-04, -4.86665667e-05, 5.70694829e-05,
          -1.58994095e-04, 1.95725268e-04, 1.80490839e-04,
          -3.22697422e-04, -5.14751824e-04, 1.42451345e-05,
          3.60870617e-04, 3.55932018e-04, -3.37437814e-04,
          -2.88311508e-04, 6.59411817e-05, -1.27863954e-04,
          5.80255983e-05, 1.01419624e-04, 2.76084815e-04, 1.78230839e-04,
          1.17656229e-04, 2.07717443e-04, 1.46009543e-05, 1.26219427e-04,
          2.20683127e-04, -2.67620931e-06, 4.77565714e-04,
          9.60414764e-05, 4.89498372e-04, -1.13481285e-04,
          -1.50089603e-04, -6.67219574e-05, 1.17850177e-04,
          6.77898934e-04, 5.98918778e-05, -2.64595641e-04,
          -2.76662118e-04, -1.28447457e-04, -1.90142804e-04,
          -1.51948305e-04, -3.47480440e-04, -5.48317505e-04,
          -6.29112823e-04 ]
      - [ 7.42960692e-05, -3.13380762e-04, -5.43388946e-04,
          -1.30194137e-04, 5.71123346e-05, 7.63994249e-05,
          1.69718085e-04, -1.06307343e-04, -2.26860386e-04,
          -3.64296720e-04, -1.55835020e-04, -1.30861750e-04,
          -9.03216423e-05, 1.27157866e-04, 4.36944450e-04,
          -6.89017252e-05, 1.40515840e-04, 1.79269991e-04,
          -1.07536209e-04, 1.34219590e-05, -1.42817007e-04,
          -1.49792497e-04, -9.23188345e-05, 2.31386497e-04,
          -4.98835789e-06, -5.03313029e-04, -1.85480149e-05,
          3.63369501e-04, -8.72140881e-05, -3.03511551e-05,
          2.76197592e-04, 2.64451170e-04, 1.68742699e-05, 1.36646966e-04,
          -5.18885900e-05, 1.04486062e-04, 1.46810009e-04,
          1.56145652e-05, 1.55132933e-04, -7.63103162e-05,
          -9.76353622e-05, 3.03051464e-04, 4.14269656e-04,
          -2.50713056e-04, -3.08457129e-05, -1.64187353e-04,
          5.92758297e-05, 5.78662839e-05, -1.60436583e-04,
          -2.31329032e-05, -2.13729538e-04, 1.28717278e-04,
          1.10268265e-04, 7.48420571e-05, 3.04944842e-04, 2.42615220e-04,
          -4.73148175e-05, -1.35983588e-04, 2.49333272e-04,
          6.68058521e-04, 2.01727424e-04, 1.91680141e-04,
          -1.84605538e-04, -5.65065769e-04 ]
   uncompressed_sv_total: 701
   uncompressed_support_vectors:
      - [ 4.20171729e+03, 2.85534277e+03, 3.24036475e+03, 1.45381580e+03,
          1.37779089e+03, 1.56672034e+03, 1.31529465e+02, 1.49036768e+03,
          2.77768604e+03, 1.55096838e+03, 7.43807800e+02, 1.46809937e+03,
          2.20510059e+03, 5.54436646e+02, 1.74246674e+02, 1.40463635e+03,
          0., 0., 0., 0., 1.58756860e+03, 3.47264185e+03, 2.71111060e+03,
          1.45198413e+03, 0., 0., 0., 0., 3.16241602e+03, 4.60854199e+03,
          3.79687134e+03, 2.92749707e+03, 0., 0., 0., 1.35679004e+03,
          3.44590845e+03, 3.14625220e+03, 4.27630176e+03, 2.62903320e+03,
          0., 9.89949512e+00, 5.57029907e+02, 7.62932495e+02,
          2.62561279e+03, 1.41797351e+03, 3.60951685e+03, 1.23700586e+03,
          2.21718628e+03, 1.10372864e+03, 1.75164197e+03, 2.69159326e+03,
          2.64830566e+03, 3.42045044e+02, 0., 2.95376318e+03,
          1.99864636e+03, 3.07684839e+03, 2.93374707e+03, 5.39655176e+03,
          1.43613794e+03, 0., 8.16333237e+01, 2.21096484e+03 ]
      - [ 2.44408545e+03, 4.71516309e+03, 1.95794641e+03, 0., 0., 0., 0.,
          0., 6.48266907e+02, 3.60914941e+03, 4.69731842e+02,
          3.84002594e+02, 0., 0., 1.38397980e+02, 0., 1.87302576e+03, 0.,
          0., 0., 1.54562500e+03, 1.16950391e+03, 1.25514063e+03,
          1.70714185e+03, 1.65549353e+03, 0., 0., 0., 1.34143372e+03,
          2.93983203e+03, 2.27284692e+03, 2.45678198e+03, 0., 0., 0.,
          1.23777319e+03, 1.22897949e+03, 9.55257507e+02, 4.47009961e+03,
          2.94204492e+03, 1.57848022e+02, 6.52218323e+02, 9.18644653e+02,
          0., 1.05109656e+03, 4.68258484e+02, 1.58259644e+03,
          2.89882568e+03, 1.22800635e+03, 5.76363403e+02, 1.06688708e+03,
          2.02463281e+03, 3.16891144e+02, 0., 0., 1.08973877e+03,
          2.73076245e+03, 2.46642114e+03, 3.07660571e+03, 1.34822852e+03,
          0., 8.36301346e+01, 1.41421354e+00, 2.51850049e+03 ]
      - [ 5.43355469e+03, 2.02593933e+03, 8.62096680e+02, 1.11224683e+03,
          0., 0., 0., 0., 5.18448193e+03, 8.39375977e+02, 0., 0., 0., 0.,
          0., 5.79332703e+02, 1.45146179e+03, 1.19331474e+02, 0., 0., 0.,
          8.79478271e+02, 1.43676013e+03, 3.39356201e+03, 2.66007507e+02,
          0., 0., 0., 1.28974780e+03, 1.04887317e+03, 3.34667456e+03,
          3.60532983e+03, 2.38892749e+03, 2.46683350e+02, 6.41288330e+02,
          4.71467926e+02, 7.02264648e+02, 6.70603516e+02, 1.20486169e+03,
          4.10824756e+03, 1.00838995e+03, 8.29718933e+02, 5.40631104e+02,
          3.75182617e+02, 1.84889160e+02, 0., 2.32572571e+02,
          1.84237366e+03, 1.72145337e+03, 2.80270020e+03, 1.02867444e+03,
          9.65452209e+02, 164., 0., 0., 1.12002368e+03, 2.65664868e+03,
          4.28926074e+03, 1.66075586e+03, 1.35793982e+03, 0., 0.,
          1.41421354e+00, 0. ]
      - [ 2.91434424e+03, 5.54592627e+03, 4.09445337e+03, 0., 0., 0., 0.,
          0., 2.79748608e+03, 2.85304346e+03, 1.53878809e+03, 0., 0., 0.,
          0., 0., 4.72951904e+03, 1.46970093e+02, 0., 0., 2.21010522e+03,
          1.15861304e+03, 1.83750403e+03, 2.36649146e+03, 3.13458447e+03,
          2.98958313e+02, 0., 4.78104614e+02, 2.59141455e+03,
          3.73988208e+03, 3.08417212e+03, 1.54033081e+03, 1.10029932e+03,
          9.25545288e+02, 6.04648666e+01, 5.30731836e+03, 2.26512036e+03,
          1.58750903e+03, 2.33151758e+03, 3.48438013e+03, 1.38661365e+03,
          2.02273926e+03, 1.46462756e+03, 1.93450549e+03, 8.17794617e+02,
          1196., 2.60430127e+03, 1.28686719e+03, 9.58795959e+02,
          2.70997131e+02, 1.54668713e+03, 1.95958289e+03, 0., 0.,
          1.41421354e+00, 3.06123584e+03, 2.90996387e+03, 3.17866699e+03,
          1.72732739e+03, 3.02600562e+03, 0., 0., 6.57818604e+02,
          4.14815430e+03 ]
      - [ 9.57778687e+02, 1.98106262e+03, 3.56401831e+03, 8.33143799e+02,
          9.19261230e+02, 4.04965363e+02, 0., 0., 0., 1.52854419e+03,
          1.92912646e+03, 3.51240662e+02, 3.36618469e+02, 7.58891357e+02,
          5.11334320e+02, 0., 1.81394409e+03, 2.96984844e+01,
          2.99822632e+02, 1.61507983e+03, 1.25265967e+03, 2.47386337e+02,
          1.07400708e+03, 1.57977271e+03, 7.68440002e+02, 4.76553925e+02,
          0., 1.03396558e+03, 3.13417480e+03, 1.31899060e+03,
          1.34066199e+03, 1.57133752e+03, 1.20208153e+02, 0.,
          8.94427185e+01, 2.18904712e+03, 2.68730347e+03, 2.26181689e+03,
          1.29273291e+03, 2.07717285e+03, 4.89605957e+02, 3.52452332e+02,
          1.58588306e+03, 2.28280533e+02, 1.35209692e+03, 2.30387280e+03,
          4.54448547e+02, 1.50039661e+03, 5.31601379e+02, 1.07860242e+03,
          2.16810107e+03, 1.92095972e+03, 4.29192078e+02, 0., 0., 0.,
          1.17545435e+03, 1.24091553e+03, 3.71337671e+03, 2.93969360e+03,
          2.58936279e+02, 0., 0., 0. ]
      - [ 5.90264258e+03, 2.80088477e+03, 6.61884229e+03, 3.94095605e+03,
          0., 0., 0., 1.22220410e+03, 2.65528857e+03, 2.24828955e+03,
          3.46493866e+02, 1.47589771e+03, 3.15039673e+02, 5.66353271e+02,
          1.33880078e+03, 2.08806137e+02, 1.97308728e+03, 0., 0., 0., 0.,
          4.90192871e+03, 1.18726465e+03, 3.88144067e+03, 0., 0.,
          5.82617065e+02, 2.32997849e+02, 3.88393042e+03, 5.16907666e+03,
          6.36841309e+03, 1.80520752e+03, 1.07840491e+03, 1.60951733e+03,
          1.83244775e+03, 3.28113110e+03, 2.40802124e+03, 2.86619263e+03,
          4.44584473e+03, 2.06786914e+03, 2.84057446e+03, 4.23870270e+02,
          1.79044250e+03, 3.23883936e+03, 3.29073096e+03, 1.20830467e+02,
          0., 0., 4.70948389e+03, 1.35675610e+03, 1.17173401e+03,
          2.63545752e+03, 2.23894678e+03, 1.84384778e+03, 5.65685425e+01,
          4.01286646e+03, 5.70252100e+03, 3.51464282e+03, 1.95508777e+03,
          3.88052515e+03, 5.76314746e+03, 0., 0., 2.76113550e+03 ]
      - [ 0., 1.81909302e+03, 6.80070020e+03, 0., 3.16227770e+00, 0., 0.,
          0., 0., 0., 8.10077759e+02, 9.15271484e+02, 4.83826416e+02, 0.,
          0., 0., 2.72848511e+03, 4.15571680e+03, 6.08920410e+02,
          6.14294580e+03, 7.62779175e+02, 1.29108606e+03, 0.,
          8.03990021e+01, 8.06436584e+02, 2.01706238e+03, 5.13798877e+03,
          7.10176709e+03, 8.82698608e+02, 1.34209741e+03, 1.35168494e+03,
          1.32686206e+03, 5.51806152e+02, 2.01391626e+03, 9.42914551e+03,
          2.26531543e+03, 0., 9.21131165e+02, 1.33961121e+03,
          7.54431946e+02, 3.95000708e+03, 4.91663135e+03, 5.59861475e+03,
          1.00148743e+03, 1.30040308e+03, 1.04621948e+03, 0.,
          7.53932373e+02, 0., 1.60301440e+03, 4.14316553e+03,
          6.35322083e+02, 0., 0., 0., 2.18659546e+02, 1.74563110e+03,
          2.42077856e+03, 6.03508594e+03, 2.90098083e+02, 0., 0., 0., 0. ]
      - [ 3.85119702e+03, 4.20440527e+03, 1.60877100e+03, 3.00506543e+03,
          0., 0., 0., 0., 1.74301074e+03, 2.49421411e+03, 3.40039380e+03,
          0., 0., 0., 0., 0., 2.93852783e+03, 10., 0., 6.25843445e+02,
          6.13637512e+02, 1.01321124e+03, 5.91732361e+02, 6.55037415e+02,
          3.83782739e+03, 1.83847771e+01, 0., 0., 2.09749292e+03,
          1.66636230e+03, 9.15966309e+02, 2.11232983e+03, 0., 0., 0.,
          1.17805566e+03, 1.02955823e+03, 1.11349402e+03, 3.02796313e+03,
          2.96395825e+03, 0., 0., 2.08892319e+02, 1.35692297e+03,
          7.72745728e+02, 5.09823486e+02, 1.92497009e+03, 1.24138770e+03,
          1.12758521e+03, 1.45877466e+03, 1.73647778e+03, 8.50023315e+02,
          6.67060730e+02, 0., 3.66263916e+02, 2.24846167e+03,
          1.62179346e+03, 2.14373364e+03, 1.67522559e+03, 2.58479712e+03,
          3.98080414e+02, 0., 2.07966339e+02, 2.15495264e+03 ]
      - [ 0., 4.03328149e+03, 6.50667822e+03, 0., 0., 0., 0., 0., 0.,
          1.66710645e+03, 2.49627539e+03, 0., 0., 0., 0., 0.,
          3.02561084e+03, 3.28426929e+03, 2.43811279e+03, 0., 0., 0.,
          1.78885441e+01, 0., 2.61953589e+03, 4.91720703e+03,
          1.22269604e+03, 2.74183765e+03, 1.19701270e+03, 5.83476563e+02,
          1.04919141e+03, 1.13372656e+03, 7.95770081e+02, 4.63807983e+02,
          1.86671741e+03, 5.09857373e+03, 1.86901465e+03, 2.21919775e+03,
          1.06347791e+03, 1.69866064e+03, 3.04705957e+03, 5.42048340e+02,
          2.09107983e+03, 3.05102319e+03, 1.72892896e+03, 2.21695776e+03,
          0., 1.09696899e+03, 1.33054834e+03, 2.39370459e+03,
          3.79353906e+03, 3.06623535e+02, 0., 0., 0., 1.73954010e+02,
          2.32142480e+03, 3.60745386e+03, 4.05045117e+03, 7.03644714e+02,
          5.57108582e+02, 0., 0., 1.15316963e+02 ]
      - [ 3.73971924e+03, 4.45962793e+03, 3.19390430e+03, 0., 0., 0., 0.,
          0., 2.74381592e+03, 1.93098193e+03, 1.73505298e+03, 0., 0., 0.,
          0., 0., 2.90825146e+03, 1.41421354e+00, 0., 0., 9.17147705e+02,
          1.88462671e+03, 1.90238440e+03, 1.54575549e+03, 2.73564185e+03,
          1.94550766e+02, 0., 2.79145142e+02, 2.42265210e+03,
          1.31532837e+03, 3.93029541e+03, 2.77324609e+03, 6.72145813e+02,
          3.56202179e+02, 1.75764282e+03, 1.80721802e+03, 9.02979004e+02,
          1.13584827e+03, 5.43490674e+03, 4.06687915e+03, 6.19000793e+02,
          0., 0., 9.79466064e+02, 5.57368835e+02, 4.08387988e+03,
          2.05106860e+03, 0., 8.07774719e+02, 5.21857544e+02,
          2.20640845e+03, 2.03323853e+03, 1.17587964e+03, 0.,
          4.38634262e+01, 2.76238452e+03, 3.52016626e+03, 1.60714746e+03,
          2.68276538e+03, 3.29441382e+03, 1.11228711e+03, 0.,
          1.15965515e+02, 4.02122217e+03 ]
      - [ 7.02457947e+02, 3.37779370e+03, 1.55024280e+03, 0., 0., 0., 0.,
          0., 0., 0., 0., 0., 0., 1.30598618e+02, 9.74854065e+02,
          9.67683105e+02, 8.81654114e+02, 1.02712002e+04, 2.83790601e+03,
          8.30013306e+02, 3.20207214e+02, 6.22133423e+02, 5.70236816e+02,
          0., 9.93671448e+02, 6.08865186e+03, 2.34306567e+03,
          3.07182837e+03, 2.38054883e+03, 1.18586475e+03, 9.01893555e+02,
          3.19101715e+02, 1.22361633e+03, 1.44993774e+03, 3.55119800e+03,
          2.75632227e+03, 1.85897791e+03, 9.73333679e+02, 2.28277612e+03,
          1.94684143e+03, 2.24846973e+03, 3.86421021e+03, 3.32236523e+03,
          1.24808557e+03, 2.36552887e+02, 6.80213196e+02, 1.35793961e+02,
          1.18524292e+03, 1.35860718e+03, 2.13074756e+03, 3.27865015e+03,
          1.97362610e+02, 0., 0., 0., 2.81684235e+02, 2.15342480e+03,
          6.35668994e+03, 4.16775439e+03, 0., 0., 0., 1.20507263e+02, 0. ]
      - [ 3.41297998e+03, 3.87640991e+03, 3.37769165e+02, 0., 0., 0., 0.,
          0., 1.06600952e+03, 2.22510620e+03, 0., 1.17720009e+02, 0., 0.,
          0., 0., 2.92034619e+03, 1.97770935e+02, 5.74381409e+02,
          6.89292419e+02, 6.84984680e+02, 1.96331360e+02, 6.40815125e+02,
          1.01833679e+03, 1.62613562e+03, 2.72541077e+02, 6.05399292e+02,
          7.82494751e+02, 1.35788416e+03, 5.75146729e+02, 1.45863733e+03,
          1.74136865e+03, 1.60460986e+03, 0., 0., 1.17058655e+03,
          6.70903442e+02, 1.85397742e+03, 1.82310547e+03, 2.25531494e+03,
          8.35718811e+02, 2.03204736e+03, 0., 5.06983246e+02,
          3.99722412e+02, 1.02956299e+02, 1.37141455e+03, 7.34943176e+02,
          8.53920715e+02, 3.28591846e+03, 6.91353760e+02, 0., 0., 0.,
          7.24706802e+01, 6.86585770e+01, 2.20653101e+03, 4.25666016e+03,
          1.68482715e+03, 0., 0., 0., 1.20830460e+01, 0. ]
      - [ 1.86888000e+03, 4.76949365e+03, 6.53289551e+03, 0., 0., 0., 0.,
          0., 0., 5.29105408e+02, 1.59219775e+03, 0., 0., 0., 0., 0.,
          7.65009521e+03, 5.52073242e+02, 2.43306320e+02, 1.67563184e+03,
          9.80837891e+02, 2.11705093e+02, 1.25363489e+03, 9.43740967e+02,
          1.66259839e+03, 2.17296143e+03, 3.98246155e+01, 4.12535645e+03,
          1.87948059e+03, 3.55933423e+03, 2.26420630e+03, 1.99284485e+03,
          1.55725269e+03, 1.20101428e+03, 4.91224463e+03, 4.03523926e+03,
          1.85154199e+03, 5.90575317e+02, 3.90016870e+03, 4.02198944e+02,
          9.01797168e+03, 4.61377014e+02, 4.30329736e+03, 3.41115814e+02,
          7.62070862e+02, 2.83114807e+02, 1.31649304e+03, 0., 0.,
          3.90743628e+03, 3.12649194e+03, 0., 0., 0., 0., 0.,
          5.24118945e+03, 8.10073535e+03, 2.34749854e+03, 2.06374023e+03,
          0., 0., 0., 0. ]
      - [ 0., 8.17519189e+03, 8.75995898e+03, 0., 0., 0., 0., 0., 0., 0.,
          4.15213330e+03, 9.51895996e+02, 0., 0., 0., 0., 2.95909058e+03,
          1.13094543e+03, 9.78365936e+01, 3.36370483e+03, 8.56747375e+02,
          9.92296143e+02, 1.42511060e+03, 8.73345947e+02, 0.,
          1.82721960e+03, 1.08042224e+03, 6.66848145e+03, 3.20960547e+03,
          7.76423584e+02, 2.23259692e+03, 7.99224609e+03, 2.42374170e+03,
          2.33148853e+03, 3.79159399e+03, 4.16163916e+03, 2.10200586e+03,
          3.09092310e+03, 8.09545227e+02, 8.24267761e+02, 1.01959082e+04,
          2.30198096e+03, 1.42466467e+03, 4.53103516e+03, 0.,
          2.46223465e+02, 6.96562958e+01, 9.55942017e+02, 0.,
          1.72322632e+03, 3.37421704e+03, 1.98319495e+03, 0., 0., 0., 0.,
          2.03117737e+03, 1.06829893e+04, 9.82740356e+02, 3.90014624e+03,
          8.47230759e+01, 0., 0., 0. ]
      - [ 0., 8.41589746e+03, 4.23602783e+03, 0., 0., 0., 0., 0., 0.,
          4.45499951e+03, 0., 0., 0., 0., 0., 0., 2.64804443e+03,
          3.19749902e+03, 1.61270459e+03, 2.83580176e+03, 6.90398438e+02,
          4.81568268e+02, 0., 7.24796509e+02, 1.54168604e+03,
          3.92832446e+03, 2.19108008e+03, 3.68507104e+03, 1.91916650e+03,
          2.35497412e+03, 1.32303137e+03, 3.54601221e+03, 2.42939746e+03,
          6.44582617e+03, 2.72670923e+03, 1.88200476e+03, 1.28195374e+03,
          2.41369507e+03, 1.78391296e+03, 1.86075244e+03, 2.46437842e+03,
          1.06048262e+04, 1.21117175e+03, 4.98196754e+01, 0., 0., 0.,
          8.15044922e+02, 0., 6.75694763e+02, 5.86961328e+03, 0., 0., 0.,
          0., 0., 0., 6.02801465e+03, 7.64530176e+03, 0., 0., 0., 0., 0. ]
      - [ 0., 1.23830078e+04, 1.32338965e+03, 0., 0., 0., 0., 0., 0.,
          1.16568164e+03, 2.69536652e+02, 0., 0., 0., 0., 0.,
          4.59725342e+03, 1.75432703e+03, 2.05612842e+03, 1.03237595e+02,
          1.51092737e+03, 6.67171692e+02, 0., 1.10339026e+03,
          1.61505835e+03, 4.72204443e+03, 9.60641479e+02, 3.04412500e+03,
          2.81606616e+03, 1.53788904e+03, 2.11002319e+03, 5.69020068e+03,
          9.48815063e+02, 1.03237595e+02, 6.28613232e+03, 6.94413391e+02,
          2.03598181e+03, 8.15183960e+02, 2.97677905e+03, 4.41417822e+03,
          3.32943970e+03, 4.23470898e+03, 1.93965125e+03, 2.90082764e+02,
          8.68986938e+02, 4.58224823e+02, 2.57406311e+02, 8.24947876e+02,
          1.73428418e+03, 3.04276611e+03, 2.01878979e+03, 0., 0., 0., 0.,
          1.88438538e+03, 2.92084863e+03, 6.04599170e+03, 5.92864697e+03,
          4.40454292e+01, 0., 0., 0., 0. ]
      - [ 0., 8.81446875e+03, 4.31668945e+03, 0., 0., 0., 0., 0., 0.,
          9.17013184e+02, 9.61791016e+02, 0., 0., 0., 0., 0.,
          6.14304736e+03, 2.28814966e+03, 7.61577368e+00, 1.84795313e+03,
          9.78332458e+02, 1.33944482e+03, 2.05034668e+02, 1.00571460e+03,
          0., 4.34779150e+03, 4.70770355e+02, 3.78428687e+03,
          4.00464331e+03, 1.79771350e+03, 3.44185303e+03, 2.04087378e+03,
          7.04911316e+02, 1.12947681e+03, 5.65857422e+03, 3.49799243e+03,
          1.80509827e+03, 7.14567871e+02, 1.25863489e+03, 2.53417554e+03,
          9.39632227e+03, 2.21155420e+03, 1.37118066e+03, 1.03617542e+03,
          1.05286401e+03, 6.94832458e+02, 7.79558167e+02, 8.07774719e+02,
          6.09644165e+02, 2.69104053e+03, 2.75977905e+03, 8.02895996e+02,
          3.00665932e+01, 0., 0., 0., 2.40069189e+03, 9.66665527e+03,
          2.13533618e+03, 2.33779395e+03, 0., 0., 0., 0. ]
      - [ 2.40665741e+02, 6.10253955e+03, 7.29397949e+03, 0., 0., 0., 0.,
          0., 0., 1.03237595e+02, 7.13356567e+02, 0., 0., 0., 0., 0.,
          5.70261963e+03, 5.13071716e+02, 0., 1.29912805e+03,
          8.02199524e+02, 9.35713806e+02, 0., 4.50608459e+02,
          1.36427869e+03, 3.57321899e+03, 2.28035069e+01, 2.00999146e+03,
          3.97357080e+03, 1.63104675e+03, 5.54618848e+03, 1.91110144e+03,
          12., 2.65333667e+03, 2.42568848e+03, 8.91742737e+02,
          7.81184998e+02, 1.57905627e+03, 5.56231299e+03, 4.54391016e+03,
          4.07489404e+03, 0., 0., 9.13186646e+02, 2.55925766e+02, 0.,
          6.70462036e+02, 2.74600281e+02, 2.06214282e+03, 2.03749451e+03,
          1.10106079e+03, 0., 0., 0., 0., 0., 8.19470801e+03,
          2.97726245e+03, 6.47345264e+03, 9.47384460e+02, 5.71875854e+02,
          0., 0., 8.11477722e+02 ]
      - [ 0., 8.20179492e+03, 4.74979785e+03, 0., 0., 0., 0., 0., 0.,
          1.93665039e+02, 0., 0., 0., 0., 0., 0., 7.36806934e+03,
          1.16966309e+03, 5.83095169e+00, 2.81712616e+02, 7.13934021e+02,
          0., 4.11594299e+02, 1.29034882e+02, 5.05466125e+02,
          5.00605011e+02, 1.01211462e+03, 3.99364600e+03, 2.03177161e+03,
          2.21346167e+03, 3.74641089e+03, 2.01386328e+03, 10.,
          1.78042712e+03, 3.74601782e+03, 2.03314893e+03, 0.,
          1.69351270e+03, 3.06646069e+03, 8.01591357e+03, 2.03929102e+03,
          6.58004578e+02, 2.25858368e+02, 3.24499603e+02, 5.70776672e+02,
          2.46454865e+02, 5.82060120e+02, 1.21655254e+01, 6.67582214e+02,
          4.36515747e+02, 1.97674048e+03, 0., 2.66270538e+02, 0., 0.,
          3.30151482e+01, 5.79713818e+03, 5.04003320e+03, 6.94099756e+03,
          7.00285645e+01, 0., 0., 0., 3.33073578e+02 ]
      - [ 0., 1.63458435e+03, 9.13921387e+03, 0., 0., 0., 0., 0.,
          1.07517441e+02, 0., 3.18748486e+03, 0., 0., 0., 0., 0.,
          5.72747192e+02, 4.98395605e+03, 2.06583374e+03, 3.26683276e+03,
          1.67899890e+03, 0., 7.08107361e+02, 6.33007080e+02,
          7.95451050e+02, 2.59181519e+03, 3.01625000e+03, 6.18620459e+03,
          1.67757935e+03, 2.90683374e+03, 1.63889844e+03, 1.63354553e+03,
          1.56931348e+03, 4.10121956e+01, 2.68741602e+03, 9.18901855e+03,
          6., 1.38754651e+03, 6.98555847e+02, 1.70454810e+03,
          1.69301782e+03, 7.17713525e+03, 0., 2.30303809e+03,
          7.47300415e+02, 5.34759766e+02, 2.56281097e+02, 1.06359961e+03,
          0., 3.73591162e+03, 8.53117798e+02, 0., 0., 0., 0., 0., 0.,
          7.39591846e+03, 4.65230518e+03, 0., 0., 0., 0., 0. ]
      - [ 6.17850244e+03, 1.36842126e+03, 1.40210608e+03, 9.33411133e+02,
          3.72804443e+03, 9.45409927e+01, 2.19505127e+02, 4.76283301e+03,
          1.55077698e+03, 4.91011200e+02, 9.46738586e+02, 7.14261841e+02,
          1.63749902e+03, 2.48676498e+02, 3.72950745e+02, 3.25982495e+03,
          0., 0., 0., 0., 0., 1.18406082e+02, 2.23049951e+03,
          5.09916455e+03, 8.98220444e+01, 0., 0., 0., 0., 2.92380981e+03,
          3.74700098e+03, 7.08212695e+03, 0., 0., 0., 0., 6.14654358e+02,
          3.48945581e+03, 6.04688867e+03, 3.39927490e+03, 0., 0., 0.,
          1.16579620e+02, 0., 2.05413452e+03, 4.11332910e+03,
          1.66291199e+03, 2.78422070e+03, 9.14964661e+02, 7.95449524e+02,
          8.43291199e+02, 2.60873730e+03, 8.61608948e+02, 6.31883057e+02,
          4.12245410e+03, 2.39843091e+03, 3.36400244e+03, 1.94328784e+03,
          2.22182202e+03, 2.91969141e+03, 0., 8.48528099e+00,
          2.85202759e+03 ]
      - [ 0., 6.60630078e+03, 5.50509961e+03, 1.71753638e+03, 0.,
          8.10555344e+01, 0., 0., 0., 3.16193628e+03, 2.04195496e+03, 0.,
          0., 0., 0., 0., 6.13178369e+03, 2.51879456e+02, 1.00372925e+03,
          2.42802905e+03, 1.72002100e+03, 6.16092529e+02, 1.58488892e+03,
          5.91219055e+02, 9.94458984e+02, 3.28600269e+03, 1.25681177e+03,
          3.68108765e+03, 4.41469580e+03, 2.38106104e+03, 2.01385034e+03,
          2.34190991e+03, 3.52759741e+03, 6.13601318e+02, 3.38670654e+03,
          3.22949023e+03, 3.99934692e+03, 5.14908887e+03, 2.81466614e+02,
          9.14957764e+02, 2.30961719e+03, 5.40599658e+03, 2.39160303e+03,
          2.92245386e+03, 7.92270081e+02, 7.74878052e+02, 1.17940271e+03,
          7.24995178e+02, 1.48136365e+03, 3.26555420e+03, 7.47236755e+02,
          0., 7.95037109e+02, 1.18143445e+03, 9.85734192e+02, 0.,
          2.31258569e+03, 3.51153247e+03, 6.87005371e+03, 1.76864307e+03,
          0., 0., 4.26867676e+02, 0. ]
      - [ 1.53427234e+03, 8.60258008e+03, 5.83562317e+02, 0., 0., 0., 0.,
          0., 0., 4.47361145e+02, 0., 0., 0., 0., 0., 1.51007935e+03,
          1.74616956e+03, 1.89721606e+03, 0., 1.89525726e+02,
          4.50155518e+02, 1.31643463e+02, 3.76223328e+02, 7.41153625e+02,
          2.24152173e+03, 0., 4.46542282e+01, 1.89517285e+03,
          7.65800232e+02, 1.49771741e+03, 1.98205945e+03, 7.06620703e+03,
          1.99333423e+03, 2.70414490e+02, 8.79541931e+02, 9.40358521e+02,
          8.20931152e+02, 1.52653711e+03, 1.51573535e+03, 8.09991846e+03,
          3.66551392e+03, 0., 1.58094910e+02, 0., 3.08804138e+02,
          5.12883972e+02, 3.14671265e+02, 0., 1.93959021e+03,
          5.62298828e+02, 2.73766327e+02, 0., 0., 0., 0., 2.71451587e+03,
          4.09464502e+03, 6.02504395e+03, 1.44450146e+03, 7.27176758e+02,
          0., 0., 4.57689850e+02, 4.69802094e+02 ]
      - [ 0., 6.26745544e+02, 1.39349141e+04, 0., 0., 0., 0., 0., 0., 0.,
          4.57774609e+03, 0., 0., 0., 0., 0., 1.99538538e+03,
          1.85234619e+03, 1.27822559e+03, 3.16729590e+03, 2.29959766e+03,
          9.59082947e+02, 7.16325378e+02, 1.57162549e+03, 3.65955566e+02,
          2.55524707e+03, 2.80765137e+03, 3.55350098e+03, 4.84611816e+03,
          2.91995386e+03, 3.72617236e+03, 2.74090796e+03, 2.10563257e+03,
          2.77164941e+03, 5.72743115e+03, 1.88618909e+03, 3.24556641e+03,
          1.58526111e+03, 4.96247528e+02, 2.85946704e+03, 3.67308618e+03,
          4.38083887e+03, 4.99195264e+03, 6.92546021e+02, 0.,
          3.46620819e+02, 0., 1.80617578e+03, 9.74166336e+01,
          3.56292798e+03, 3.51742383e+03, 0., 0., 0., 0., 0.,
          1.99538818e+03, 4.44069678e+03, 9.16276660e+03, 0., 0., 0., 0.,
          0. ]
      - [ 3.99696240e+03, 4.61699609e+03, 1.48362695e+03, 1.25654822e+03,
          0., 0., 0., 0., 0., 4.54287598e+03, 1.24052075e+03,
          4.27619019e+02, 0., 0., 3.65833282e+02, 5.34303284e+02,
          1.59990259e+03, 2.81128198e+03, 1.09891736e+03, 3.39210767e+03,
          3.56589038e+03, 2.26603491e+03, 1.75133447e+03, 0.,
          6.02269043e+02, 1.47729565e+03, 9.99009247e+01, 5.82214893e+03,
          5.24997119e+03, 1.63907678e+03, 1.52760596e+03, 2.16650024e+03,
          1.96097925e+03, 2.27812744e+03, 6.04152298e+01, 3.74077393e+03,
          4.27251855e+03, 2.57893970e+03, 4.08613989e+03, 3.71750098e+03,
          2.24238037e+03, 2.10012012e+03, 1.84548096e+02, 1.73452710e+03,
          1.84669275e+03, 3.00727026e+03, 1.76587878e+03, 7.06615845e+02,
          3.38769629e+03, 2.32635815e+03, 3.02482446e+03, 1.59173721e+02,
          0., 0., 0., 0., 0., 1.17620967e+04, 2.68427393e+03,
          1.90064307e+03, 0., 0., 0., 0. ]
      - [ 6.76979736e+03, 1.64063110e+03, 5.94212097e+02, 1.43939746e+03,
          9.43782837e+02, 0., 3.54316254e+02, 9.89949493e+01,
          5.07993359e+03, 2.39572729e+03, 0., 0., 0., 0., 0.,
          1.06565405e+03, 3.05250586e+03, 4.24264050e+00, 0., 0.,
          7.04556580e+02, 4.93063904e+02, 1.04550122e+03, 3.23708936e+03,
          1.77994556e+03, 4.51884956e+01, 0., 0., 1.12864404e+03,
          2.03962573e+03, 2.83516772e+03, 1.99049927e+03, 0., 0., 0., 0.,
          1.22063208e+03, 3.09999023e+03, 4.13133447e+03, 1.65660120e+03,
          0., 1.14947296e+02, 0., 0., 9.84973816e+02, 1.12221912e+03,
          4.15279297e+03, 6.93241638e+02, 3.13693066e+03, 9.25098511e+02,
          9.70416870e+02, 2.16685986e+03, 1.10669849e+03, 0., 0.,
          2.70486328e+03, 1.42033032e+03, 1.70375049e+03, 3.78016284e+03,
          1.68073303e+03, 1.11302295e+03, 0., 4.58039284e+01,
          6.78805664e+02 ]
      - [ 2.98778564e+03, 3.18180103e+03, 3.17111255e+03, 2.27715869e+03,
          3.19501221e+03, 1.92353840e+01, 0., 0., 1.36257288e+03,
          2.13371240e+03, 1.23047314e+03, 1.61566187e+03, 1.56432129e+03,
          1.52145056e+03, 7.53166809e+02, 0., 0., 1.06677086e+02, 0.,
          9.21091797e+02, 3.51268506e+03, 1.39817432e+03, 1.69474231e+03,
          1.50134534e+03, 0., 0., 0., 0., 6.32038770e+03, 2.13126123e+03,
          3.01860498e+03, 3.06115430e+03, 0., 0., 2.01816742e+02,
          3.28694366e+02, 3.95794238e+03, 8.06784570e+03, 2.43212573e+03,
          0., 0., 0., 0., 2.90520233e+02, 4.30631836e+03, 3.67893164e+03,
          0., 0., 0., 8.59069214e+02, 1.16542688e+03, 6.61938379e+03, 0.,
          0., 0., 1.70676343e+03, 5.99496460e+02, 2.20182690e+03,
          4.88737744e+03, 6.61713037e+03, 0., 1.97470016e+02,
          4.65746002e+02, 1.21576624e+03 ]
      - [ 0., 1.05744531e+04, 8.74006897e+02, 0., 0., 0., 0.,
          3.93192062e+01, 0., 2.25738257e+03, 0., 0., 0., 0., 0., 0.,
          3.46613232e+03, 2.97938257e+03, 5.59917847e+02, 5.42033203e+02,
          1.07935165e+02, 4.81823639e+02, 8.86762329e+02, 1.52320837e+03,
          4.18576709e+03, 0., 1.26624707e+03, 7.60221008e+02,
          3.70136133e+03, 1.82996240e+03, 5.18479443e+03, 2.01372498e+03,
          9.26417908e+02, 4.78737109e+03, 5.42492139e+03, 0.,
          1.88695056e+03, 2.06851880e+03, 3.97171606e+03, 2.95720630e+03,
          3.01516309e+03, 7.14001465e+03, 2.08368774e+03, 0.,
          1.05787598e+03, 6.57165100e+02, 1.51687354e+03, 4.24301758e+02,
          0., 4.48560303e+03, 2.75955811e+03, 5.45376343e+02, 0.,
          7.07106781e+01, 0., 0., 3.04384424e+03, 6.76060303e+03,
          6.44172656e+03, 0., 0., 0., 0., 0. ]
      - [ 0., 2.53923584e+03, 8.11755127e+03, 1.29541895e+03,
          2.88392090e+02, 0., 0., 0., 0., 0., 2.66113989e+03, 0., 0., 0.,
          0., 0., 9.84946899e+02, 6.51543945e+03, 0., 5.65360400e+03,
          7.06772949e+02, 2.85895081e+02, 8.69751709e+02, 6.91968201e+02,
          9.18659241e+02, 3.52308057e+03, 2.74604834e+03, 3.99867139e+03,
          5.92895068e+03, 1.11528101e+03, 4.79568213e+03, 9.43191406e+02,
          4.31295557e+03, 2.21527759e+03, 9.62041931e+02, 1.94354443e+03,
          3.12714551e+03, 1.50479712e+03, 2.63285059e+03, 4.04683350e+03,
          7.28232373e+03, 2.23731592e+03, 2.18850391e+03, 0., 0.,
          8.06790161e+02, 2.43848389e+03, 3.19891382e+03, 0.,
          4.03744482e+03, 3.07155518e+03, 1.93562573e+03, 0., 0., 0.,
          1.21457809e+02, 1.97244397e+03, 7.78446533e+03, 3.88066479e+03,
          3.67780884e+03, 0., 0., 0., 0. ]
      - [ 0., 8.89089844e+03, 4.82453278e+02, 0., 28., 0.,
          1.97989902e+01, 0., 7.50419922e+02, 6.70074615e+01, 0., 0., 0.,
          0., 0., 0., 3.57785742e+03, 6.67223389e+03, 1.27561752e+02,
          1.54757471e+03, 9.55039551e+02, 6.69354919e+02, 9.10578308e+02,
          5.70087700e+01, 2.08149805e+03, 4.35046680e+03, 6.22896461e+01,
          4.36042920e+03, 4.16033545e+03, 1.54342664e+03, 1.15546472e+03,
          9.96478516e+02, 2.63629443e+03, 5.70791846e+03, 4.29176123e+03,
          4.41454407e+02, 4.42730164e+02, 1.09677979e+03, 2.90562842e+03,
          5.30199854e+03, 4.45911475e+03, 5.29392285e+03, 1.54278723e+03,
          6.62193359e+02, 3.60469147e+02, 4.99103210e+02, 3.98504852e+02,
          1.13711792e+03, 7.52346985e+02, 4.02906616e+03, 2.91468262e+03,
          0., 0., 0., 0., 1.21696342e+02, 1.97906519e+03, 8.45092578e+03,
          1.30950696e+03, 3.27288477e+03, 0., 0., 0., 0. ]
      - [ 0., 5.91277197e+03, 1.21786389e+03, 0., 0., 0., 0., 0.,
          2.58804932e+02, 0., 0., 0., 0., 0., 0., 0., 2.68161206e+03,
          5.53351953e+03, 7.76556519e+02, 7.20369385e+02, 1.74361377e+03,
          7.88684998e+02, 1.35651685e+03, 0., 8.23015198e+02,
          2.45708032e+03, 2.66943848e+03, 3.78443726e+03, 1.88133679e+03,
          1.39543152e+03, 1.23048877e+03, 1.86520605e+03, 9.48827698e+02,
          5.26097314e+03, 4.51241504e+03, 7.90817017e+02, 7.90607361e+02,
          6.38206787e+02, 1.22646729e+03, 4.21202490e+03, 3.38554712e+03,
          4.78671631e+03, 8.24578857e+02, 6.62849854e+02, 7.41216919e+02,
          2.72360046e+02, 6.66904785e+02, 0., 4.04216113e+03,
          2.52232764e+03, 0., 0., 8.71435623e+01, 0., 0., 5.98965759e+02,
          3.14783252e+03, 7.64874170e+03, 3.51344019e+03, 0., 0., 0.,
          1.35092560e+02, 9.12479126e+02 ]
      - [ 0., 4.02334106e+03, 5.83755859e+03, 1.73277197e+03, 0., 0., 0.,
          0., 0., 7.13169006e+02, 1.76585413e+03, 2.62713965e+03, 0., 0.,
          3.25272186e+02, 0., 2.98484839e+03, 3.30150452e+02, 0.,
          1.92260239e+02, 3.66234692e+03, 1.63835742e+03, 9.00942078e+02,
          1.50832446e+03, 1.51161511e+03, 1.69244751e+03, 3.12678741e+02,
          1.21526306e+03, 4.41476855e+03, 2.50046924e+03, 2.06288135e+03,
          3.14308521e+03, 8.69708435e+02, 0., 3.44093018e+01,
          3.71321167e+03, 5.38581396e+03, 3.36626636e+03, 2.45097559e+03,
          1.64283008e+03, 1.60381299e+03, 2.12132034e+01, 0.,
          7.44852734e+03, 1.40445410e+03, 2.84850830e+02, 1.71622168e+03,
          1.25992627e+03, 8.78039856e+02, 2.51367578e+03, 2.85235913e+03,
          2.47784473e+03, 0., 8.14125290e+01, 0., 0., 0., 6.60774707e+03,
          3.20143213e+03, 3.38005566e+03, 0., 0., 0., 2.44495392e+02 ]
      - [ 2.95532104e+03, 4.35901514e+03, 1.66873413e+03, 7.16665894e+02,
          0., 0., 8.71484497e+02, 0., 3.15521094e+03, 7.40834656e+02, 0.,
          0., 2.09308395e+02, 0., 6.98827576e+02, 6.82770813e+02,
          3.35208228e+03, 1.17290054e+02, 0., 0., 1.45144055e+03, 0.,
          1.88084900e+03, 3.19748218e+03, 1.66860779e+03, 0., 0.,
          1.86671008e+03, 8.54118164e+02, 1.43337817e+03, 3.73265405e+03,
          5.27371582e+03, 7.76170105e+02, 4.28018684e+01, 0.,
          1.70957910e+03, 1.78235059e+03, 1.62021838e+03, 2.75276123e+03,
          4.89740869e+03, 3.23952734e+03, 3.22245270e+02, 1.64808136e+02,
          0., 1.33830884e+03, 4.67315735e+02, 9.74799500e+02,
          5.40059131e+03, 2.52678101e+03, 3.46209204e+03, 4.84530701e+02,
          0., 1.50119949e+02, 0., 0., 0., 3.88648242e+03, 7.59325537e+03,
          1.73524634e+03, 0., 0., 0., 0., 0. ]
      - [ 0., 4.76733984e+03, 7.57360156e+03, 0., 0., 0., 0., 0., 0.,
          1.49505603e+03, 5.23581848e+02, 0., 0., 0., 0., 0.,
          1.95815698e+03, 7.00293750e+03, 1.86283594e+03, 1.65016846e+03,
          2.09425439e+03, 3.12570007e+02, 6.29215393e+02, 4.51955750e+02,
          5.29952820e+02, 1.93995325e+03, 8.48557813e+03, 4.03620996e+03,
          2.59393140e+03, 2.70835278e+03, 1.57844568e+03, 2.71870044e+03,
          4.66263525e+03, 7.62329041e+02, 6.70416064e+03, 2.91060229e+03,
          9.16823914e+02, 1.43460486e+03, 1.10868542e+03, 4.13043994e+03,
          7.71365723e+03, 4.42740527e+03, 7.37140442e+02, 1.27480896e+03,
          8.96233154e+02, 0., 1.05191248e+03, 1.35619495e+03, 0.,
          1.80040283e+03, 5.44959082e+03, 5.44058838e+01, 0., 0., 0., 0.,
          1.99978088e+03, 4.30972070e+03, 8.62478711e+03, 7.60848206e+02,
          0., 0., 0., 0. ]
      - [ 5.07544580e+03, 3.67795825e+03, 2.36403833e+03, 2.01651770e+03,
          4.56524170e+03, 9.14396240e+02, 4.61391541e+02, 1.25634392e+02,
          9.08045166e+02, 1.42948645e+03, 1.88375513e+03, 5.24924072e+03,
          1.06976631e+02, 0., 0., 3.63606934e+02, 1.78407764e+03, 0., 0.,
          6.93018005e+02, 3.13033521e+03, 2.63888184e+03, 2.39849951e+03,
          2.65681274e+03, 0., 0., 0., 0., 5.66020752e+03, 5.11701660e+03,
          2.67041187e+03, 3.77143164e+03, 0., 0., 0., 5.27797302e+02,
          6.48188623e+03, 4.32699219e+03, 5.30433545e+03, 5.11409821e+02,
          0., 0., 0., 0., 4.00822217e+03, 3.82277832e+03, 1.60617615e+03,
          0., 1.62472095e+03, 8.33501709e+02, 1.72439893e+03,
          5.32506982e+03, 1.91702710e+03, 0., 0., 1.84710706e+03,
          2.55856519e+03, 2.86278271e+03, 4.61089355e+03, 8.76906641e+03,
          0., 2.08593384e+02, 8.42684204e+02, 1.19191809e+03 ]
      - [ 6.32455482e+01, 6.94082861e+03, 3.91832129e+03, 3.96135132e+03,
          0., 0., 0., 0., 0., 0., 6.46725708e+02, 8.50022339e+02,
          1.43147778e+03, 2.63421509e+02, 0., 9.67677612e+01,
          1.70686133e+03, 1.89866943e+03, 0., 1.93401660e+03,
          5.60309033e+03, 1.41188892e+03, 0., 9.13153870e+02, 0.,
          1.77129846e+03, 1.73114697e+03, 6.84431592e+03, 3.30676563e+03,
          5.28801074e+03, 1.92778369e+03, 4.21197949e+03, 0.,
          7.07106781e+00, 5.00465881e+02, 7.78669531e+03, 3.64926178e+02,
          5.15180273e+03, 2.08726611e+03, 3.34346045e+03, 8.22976318e+02,
          0., 4.02337305e+03, 4.04793970e+03, 2.91474146e+03, 0.,
          6.53776733e+02, 2.26874420e+02, 0., 1.93555554e+03,
          4.28287451e+03, 5.23826465e+03, 5.76222168e+02, 0.,
          2.88461426e+02, 8.41176575e+02, 3.24943945e+03, 2.65104590e+03,
          5.60786328e+03, 7.53739551e+03, 0., 1.39118652e+02,
          2.26384628e+02, 0. ]
      - [ 0., 5.65670947e+03, 7.06288818e+03, 0., 0., 0., 0., 0., 0., 0.,
          1.94907031e+03, 8.08518921e+02, 0., 0., 0., 0., 4.74959863e+03,
          9.67941101e+02, 0., 3.10453101e+03, 1.94724377e+03,
          9.25026489e+02, 2.86020966e+02, 1.59431006e+03, 2.53346045e+03,
          1.02145795e+03, 3.91977271e+03, 5.02993848e+03, 1.75582581e+03,
          1.81453882e+03, 2.07734570e+03, 3.45237280e+03, 0.,
          5.52887115e+01, 4.92748730e+03, 1.91940698e+03, 3.03842072e+02,
          9.75870117e+02, 7.81114307e+03, 4.47554248e+03, 8.84036194e+02,
          0., 0., 1.76139905e+03, 3.39148682e+03, 1.31700696e+03, 0., 0.,
          1.38303271e+03, 1.14692944e+03, 1.32601440e+03, 2.54749268e+03,
          0., 0., 0., 1.85351050e+03, 2.74046899e+03, 3.70251099e+03,
          4.34027197e+03, 2.67648560e+03, 2.61961823e+02, 4.94604889e+02,
          1.76387720e+03, 1.97411523e+03 ]
      - [ 6.60990088e+03, 3.29402515e+03, 4.46999902e+03, 2.83028760e+03,
          7.51445618e+02, 8.42544922e+02, 1.00875403e+03, 1.63103381e+03,
          1.91086365e+02, 8.90954590e+01, 6.78174927e+02, 0.,
          8.18086731e+02, 2.10344482e+03, 0., 1.90378571e+02,
          2.02712891e+03, 0., 0., 2.02303369e+03, 4.96181396e+02,
          2.58715918e+03, 1.49273926e+03, 2.51781128e+03, 3.85152637e+03,
          0., 2.64461700e+02, 1.80503198e+03, 3.73006396e+03,
          3.77551807e+03, 7.42522314e+03, 5.86517090e+03, 0., 0.,
          9.37443314e+01, 4.08171680e+03, 6.20914111e+03, 3.24261133e+03,
          2.78547485e+03, 1.16498657e+03, 7.08550342e+03, 2.49337915e+03,
          1.23380054e+03, 8.71340698e+02, 1.97377234e+03, 1.58841064e+03,
          1.43860498e+03, 2.60115845e+03, 2.70942725e+03, 4.19388916e+03,
          1.91259302e+03, 4.08271362e+03, 0., 0., 0., 5.80582458e+02,
          7.01971191e+03, 2.42397534e+03, 9.14636816e+03, 4.14047852e+03,
          0., 0., 0., 0. ]
      - [ 0., 7.62820020e+03, 4.58602441e+03, 4.17688574e+03, 0., 0., 0.,
          0., 0., 1.74329565e+03, 2.35332031e+03, 9.66197998e+02,
          3.89057788e+03, 0., 2.34968094e+02, 0., 1.62769897e+03,
          8.95544510e+01, 0., 3.65437695e+03, 3.11518604e+03,
          1.63350439e+03, 6.74307068e+02, 0., 1.56847449e+03,
          1.94101624e+03, 2.84713936e+01, 3.44766479e+03, 3.36082886e+03,
          3.67750806e+03, 2.57296362e+03, 3.28030640e+03, 0., 0., 0.,
          2.05693530e+03, 2.29824780e+03, 6.15353564e+03, 3.80178882e+03,
          3.29844531e+03, 0., 7.49533157e+01, 2.36187915e+03,
          1.92490149e+03, 2.57226929e+03, 9.41940552e+02, 2.24326807e+03,
          6.30384033e+02, 1.66623633e+03, 1.75286353e+03, 2.77322119e+03,
          4.89354834e+03, 0., 2.44131126e+01, 0., 1.75135706e+03,
          2.49567041e+03, 1.54285791e+03, 3.79423657e+03, 8.20783496e+03,
          0., 0., 0., 0. ]
      - [ 4.20525970e+01, 8.27022754e+03, 3.00028015e+02, 4.20475922e+01,
          0., 3.16227760e+01, 5.65685415e+00, 3.80525970e+01, 8.,
          2.60447437e+03, 3.40587730e+01, 0., 4.60475922e+01, 0.,
          3.67695503e+01, 0., 3.46315186e+03, 5.75563623e+03,
          1.62403345e+03, 2.47451855e+03, 4.67865356e+02, 7.33328064e+02,
          3.77043762e+02, 0., 1.38713904e+03, 5.00985693e+03,
          1.92499561e+03, 4.66172559e+03, 1.75123975e+03, 9.96237061e+02,
          1.43368201e+03, 6.73897644e+02, 3.47694409e+03, 5.00281689e+03,
          1.56160205e+03, 1.58130542e+03, 6.18727722e+02, 2.63138733e+02,
          1.06658252e+03, 6.14087793e+03, 6.10076660e+03, 1.74091650e+03,
          1.94427295e+03, 8.27647247e+01, 0., 5.71546997e+02,
          7.54742371e+02, 1.99860132e+03, 0., 4.31802637e+03,
          1.42640186e+03, 0., 0., 0., 0., 0., 1.34372620e+02,
          7.25228516e+03, 4.30109619e+03, 0., 0., 0., 0., 0. ]
      - [ 7.94335840e+03, 6.13044287e+03, 3.21652832e+03, 1.98620715e+03,
          9.05538559e+00, 0., 0., 9.70338013e+02, 1.67302319e+03,
          3.59210236e+02, 8.24780457e+02, 4.93171387e+02, 1.17046989e+02,
          0., 0., 0., 1.96988025e+03, 9.12359619e+01, 0., 0., 2.,
          4.95015533e+02, 2.33542798e+03, 7.32210571e+02, 10., 0., 0.,
          2.04061267e+03, 1.80216333e+03, 3.51149463e+03, 6.61241943e+03,
          3.95389551e+03, 0., 0., 0., 7.07106829e+00, 3.79059888e+03,
          3.52245850e+03, 3.42727563e+03, 9.19750684e+03, 1.62071335e+02,
          0., 0., 0., 1.46596106e+03, 1.61473340e+03, 2.18621387e+03, 0.,
          9.22922485e+02, 6.57146851e+02, 8.47235168e+02, 1.07201660e+03,
          0., 1.96573572e+03, 3.48281494e+02, 0., 9.92702441e+03,
          2.40414673e+03, 1.69933813e+03, 5.48690479e+03, 0., 0., 0.,
          2.07272461e+03 ]
      - [ 2.71308130e+03, 1.76237256e+03, 2.61243408e+03, 3.17280615e+03,
          4.90405908e+03, 4.31351349e+02, 0., 0., 1.59631226e+03,
          9.35506714e+02, 1.64610303e+03, 4.41092334e+03, 7.54010620e+02,
          0., 0., 2.19667334e+03, 0., 0., 0., 0., 3.50399072e+03,
          1.63124756e+03, 4.36798779e+03, 0., 0., 0., 0., 0.,
          3.47320313e+03, 5.36072119e+03, 4.33096533e+03, 3.56707861e+03,
          0., 1.43450333e+02, 0., 1.49608557e+03, 6.51052734e+03,
          4.00032300e+03, 2.23367798e+03, 1.66552478e+03, 0., 0., 0., 0.,
          8.01458301e+03, 3.87684906e+02, 1.00269482e+03, 2.70835754e+02,
          0., 1.68166614e+03, 3.36587451e+03, 1.21861536e+03,
          5.14851953e+03, 0., 2.12132034e+01, 2.69867310e+03,
          2.56341528e+03, 5.82544434e+02, 6.30252002e+03, 5.67079199e+03,
          1.86063184e+03, 4.14004822e+01, 2.10444550e+02, 1.57731775e+03 ]
      - [ 0., 3.59386377e+03, 8.52723828e+03, 1.97827576e+03, 0., 0., 0.,
          0., 0., 1.16505432e+03, 1.72103284e+03, 3.60923584e+03,
          2.97274292e+02, 0., 0., 0., 1.81584509e+03, 0., 0., 0.,
          4.89436865e+03, 1.62011572e+03, 7.08938232e+02, 1.67962500e+03,
          0., 2.06463965e+03, 5.90931473e+01, 1.57300293e+03,
          5.18967285e+03, 2.16498828e+03, 3.24959058e+03, 3.65243628e+03,
          0., 0., 0., 0., 1.04429902e+04, 1.30150732e+03, 2.54517480e+03,
          1.49392920e+03, 1.55784937e+03, 2.54558449e+01, 2.76131531e+02,
          5.51833594e+03, 2.21065112e+03, 9.10302124e+02, 1.10613110e+03,
          1.56597876e+03, 0., 2.35915942e+03, 5.72916992e+03,
          3.18271167e+03, 0., 0., 0., 0., 1.91540320e+03, 4.69200244e+03,
          4.39610107e+03, 4.89172119e+03, 1.57401147e+03, 0., 0., 0. ]
      - [ 7.40945358e+01, 3.13227783e+03, 1.35302075e+03, 4.43355377e+02,
          5.60899292e+02, 9.05538483e+01, 8.28420898e+02, 5.23940857e+02,
          1.21871838e+03, 7.07106781e+00, 0., 0., 4.74647247e+02,
          8.07430115e+02, 3.81837654e+01, 5.19861938e+02, 1.45801782e+03,
          0., 0., 1.63248291e+02, 2.20142383e+03, 1.38792847e+03,
          1.23942981e+03, 8.63097900e+02, 2.07872412e+03, 3.19355591e+02,
          0., 1.21298438e+03, 1.25285156e+03, 2.90099854e+03,
          3.51026270e+03, 1.97688538e+03, 7.34276489e+02, 1.37003647e+02,
          0., 8.12623657e+02, 1.72731323e+03, 3.54021411e+03,
          2.23059082e+03, 2.34258887e+03, 1.80586523e+03, 2.98634064e+02,
          0., 0., 2.15792358e+03, 1.26694031e+03, 3.84713110e+03,
          8.39245422e+02, 0., 4.14373242e+03, 4.59854309e+02,
          1.66857886e+03, 0., 0., 8.34505844e+01, 0., 1.65889111e+03,
          4.12985010e+03, 2.21989673e+03, 1.48961902e+03, 0.,
          1.45801239e+02, 0., 0. ]
      - [ 2.04860571e+03, 3.77344165e+03, 2.88849438e+03, 3.38597559e+03,
          1.73643933e+03, 6.40780792e+01, 0., 0., 8.10362012e+03,
          8.80336243e+02, 8.89540283e+02, 6.64085815e+02, 1.56128638e+03,
          1.76119278e+02, 2.34251999e+02, 5.62321240e+03, 3.52268115e+03,
          0., 0., 1.04847058e+03, 1.44690845e+03, 2.29147339e+03,
          1.72401270e+03, 1.68442786e+03, 3.42622632e+03, 9.41815948e+01,
          0., 1.84611145e+03, 3.51212622e+03, 1.35584583e+03,
          3.79699048e+03, 4.11475244e+03, 0., 0., 0., 0., 1.62049377e+02,
          8.51307324e+03, 6.63837451e+03, 8.11881775e+02, 3.84707680e+01,
          0., 0., 0., 0., 1.19463770e+03, 8.00938623e+03, 1.62542313e+02,
          1.34394141e+03, 9.02551270e+02, 9.18942871e+02, 5.82134912e+03,
          0., 0., 2.26274166e+01, 3.64871265e+03, 1.83248853e+03,
          3.86212231e+03, 3.19670654e+03, 6.65120313e+03, 0., 0.,
          4.19286719e+03, 3.85683807e+02 ]
      - [ 4.03674780e+03, 2.28237549e+03, 1.35856934e+03, 2.83651270e+03,
          1.93491943e+03, 2.56063812e+02, 0., 1.23565259e+03,
          4.20338916e+03, 1.20427112e+03, 8.15138000e+02, 8.68258423e+02,
          2.32316797e+03, 0., 3.53553391e+01, 2.55543628e+03,
          3.23938477e+02, 0., 0., 0., 2.59855029e+03, 1.28525269e+03,
          2.12438477e+03, 4.11441650e+03, 0., 0., 0., 3.17014191e+02,
          3.62948169e+03, 2.06735229e+03, 3.56527563e+03, 4.67522021e+03,
          0., 0., 0., 0., 1.37179492e+03, 1.84155493e+03, 1.04318428e+04,
          0., 0., 0., 0., 0., 0., 1.76693250e+03, 7.07278906e+03, 0.,
          4.61735840e+01, 1.75247693e+03, 1.10235742e+03, 4.76155029e+03,
          0., 0., 1.64613647e+03, 1.39463562e+03, 2.62307813e+03,
          1.92770703e+03, 2.16464429e+03, 6.12245947e+03, 0., 0.,
          3.33597925e+03, 1.33271570e+03 ]
      - [ 1.21439905e+03, 3.07328345e+03, 2.54299536e+03, 2.27453638e+03,
          0., 0., 0., 0., 0., 0., 1.34091211e+03, 1.66809619e+03,
          1.17881592e+03, 6.25800293e+02, 6.64418579e+02, 0., 0.,
          8.65769104e+02, 2.94259277e+03, 4.19197168e+03, 1.00286200e+03,
          0., 0., 0., 0., 7.35391083e+01, 2.66976929e+03, 4.36529492e+03,
